{"learner":{"attributes":{},"feature_names":[],"feature_types":[],"gradient_booster":{"model":{"gbtree_model_param":{"num_parallel_tree":"1","num_trees":"100"},"iteration_indptr":[0,1,2,3,4,5,6,7,8,9,10,11,12,13,14,15,16,17,18,19,20,21,22,23,24,25,26,27,28,29,30,31,32,33,34,35,36,37,38,39,40,41,42,43,44,45,46,47,48,49,50,51,52,53,54,55,56,57,58,59,60,61,62,63,64,65,66,67,68,69,70,71,72,73,74,75,76,77,78,79,80,81,82,83,84,85,86,87,88,89,90,91,92,93,94,95,96,97,98,99,100],"tree_info":[0,0,0,0,0,0,0,0,0,0,0,0,0,0,0,0,0,0,0,0,0,0,0,0,0,0,0,0,0,0,0,0,0,0,0,0,0,0,0,0,0,0,0,0,0,0,0,0,0,0,0,0,0,0,0,0,0,0,0,0,0,0,0,0,0,0,0,0,0,0,0,0,0,0,0,0,0,0,0,0,0,0,0,0,0,0,0,0,0,0,0,0,0,0,0,0,0,0,0,0],"trees":[{"base_weights":[8.373475E-8,-8.56597E-1,9.1778266E-1,-1.6809123E0,2.2210068E-1,1.2858657E0,-1.2903681E0,-1.8528455E0,7.967515E-2,8.6058116E-1,-1.5245621E-1,1.603777E0,-3.4950218E-1,2.1921203E-2,-1.6566613E-1,-2.2523424E-2,-1.9252168E-1,1.4565453E-1,-9.516528E-2,1.7407963E-1,-5.489062E-2,-1.3375565E-1,9.293637E-2],"categories":[],"categories_nodes":[],"categories_segments":[],"categories_sizes":[],"default_left":[0,0,0,0,0,0,0,0,0,0,0,0,0,0,0,0,0,0,0,0,0,0,0],"id":0,"left_children":[1,3,5,7,9,11,13,15,-1,17,-1,19,21,-1,-1,-1,-1,-1,-1,-1,-1,-1,-1],"loss_changes":[7.409598E1,4.3720882E1,3.8640587E1,1.3297485E1,2.5846462E1,2.1096512E1,4.233779E0,2.6583939E0,0E0,1.947644E1,0E0,1.076284E1,1.0404038E1,0E0,0E0,0E0,0E0,0E0,0E0,0E0,0E0,0E0,0E0],"parents":[2147483647,0,0,1,1,2,2,3,3,4,4,5,5,6,6,7,7,9,9,11,11,12,12],"right_children":[2,4,6,8,10,12,14,16,-1,18,-1,20,22,-1,-1,-1,-1,-1,-1,-1,-1,-1,-1],"split_conditions":[2.0977244E-1,-2.0544121E-2,1.0853671E0,5.1288617E-1,3.952429E-1,9.6148425E-1,2.605779E-1,-1.6484581E0,7.967515E-2,3.403863E-1,-1.5245621E-1,1.167002E0,8.312133E-1,2.1921203E-2,-1.6566613E-1,-2.2523424E-2,-1.9252168E-1,1.4565453E-1,-9.516528E-2,1.7407963E-1,-5.489062E-2,-1.3375565E-1,9.293637E-2],"split_indices":[29,1689,799,3887,943,2264,0,1550,0,8221,0,1053,1040,0,0,0,0,0,0,0,0,0,0],"split_type":[0,0,0,0,0,0,0,0,0,0,0,0,0,0,0,0,0,0,0,0,0,0,0],"sum_hessian":[9.224932E1,4.774965E1,4.4499672E1,2.6749804E1,2.0999846E1,3.8499718E1,5.999956E0,2.5249815E1,1.499989E0,1.5749885E1,5.2499614E0,3.2249763E1,6.249954E0,1.2499908E0,4.749965E0,1.2499908E0,2.3999825E1,1.1999912E1,3.7499726E0,3.0499777E1,1.7499871E0,3.4999743E0,2.7499797E0],"tree_param":{"num_deleted":"0","num_feature":"12800","num_nodes":"23","size_leaf_vector":"1"}},{"base_weights":[-3.2518436E-3,-1.1736685E0,5.702114E-1,-1.5859737E0,1.1480426E0,1.0685213E0,-6.2366295E-1,-1.7927799E-1,1.1305541E-1,2.035321E-2,1.3912784E-1,-1.3071822E-1,1.2389597E0,1.018884E0,-1.1937437E0,1.3693826E-1,-9.317851E-2,-2.0512355E-2,1.4262511E-1,-1.5922889E-1,8.9807E-2],"categories":[],"categories_nodes":[],"categories_segments":[],"categories_sizes":[],"default_left":[0,0,0,0,0,0,0,0,0,0,0,0,0,0,0,0,0,0,0,0,0],"id":1,"left_children":[1,3,5,7,9,11,13,-1,-1,-1,-1,-1,15,17,19,-1,-1,-1,-1,-1,-1],"loss_changes":[6.2846558E1,3.1294724E1,3.805539E1,1.6951874E1,9.16852E-1,1.9722588E1,1.9137287E1,0E0,0E0,0E0,0E0,0E0,1.3231697E1,3.0202732E0,1.3658421E1,0E0,0E0,0E0,0E0,0E0,0E0],"parents":[2147483647,0,0,1,1,2,2,3,3,4,4,5,5,6,6,12,12,13,13,14,14],"right_children":[2,4,6,8,10,12,14,-1,-1,-1,-1,-1,16,18,20,-1,-1,-1,-1,-1,-1],"split_conditions":[-3.4610426E-1,1.39731E-1,7.104236E-1,-1.2074456E-1,-1.7770049E-1,-9.189444E-1,-6.567183E-2,-1.7927799E-1,1.1305541E-1,2.035321E-2,1.3912784E-1,-1.3071822E-1,1.1929054E0,-5.280135E-1,1.2211826E0,1.3693826E-1,-9.317851E-2,-2.0512355E-2,1.4262511E-1,-1.5922889E-1,8.9807E-2],"split_indices":[2461,5668,778,4223,276,5405,6507,0,0,0,0,0,938,189,615,0,0,0,0,0,0],"split_type":[0,0,0,0,0,0,0,0,0,0,0,0,0,0,0,0,0,0,0,0,0],"sum_hessian":[9.16373E1,2.9790134E1,6.1847164E1,2.556672E1,4.223417E0,4.3708656E1,1.8138508E1,2.4074038E1,1.4926816E0,1.2410513E0,2.9823654E0,2.479396E0,4.1229263E1,4.4705267E0,1.3667981E1,3.924076E1,1.9885008E0,1.2402971E0,3.2302299E0,1.1681207E1,1.9867747E0],"tree_param":{"num_deleted":"0","num_feature":"12800","num_nodes":"21","size_leaf_vector":"1"}},{"base_weights":[-2.4995573E-3,-7.297481E-1,7.7513605E-1,-1.4332986E0,1.8298581E-1,1.4413568E0,-2.0533484E-1,-1.5851882E0,7.055046E-2,1.1763729E0,-7.0433325E-1,1.5704647E0,-1.204681E-2,7.0549345E-1,-1.2136765E0,-1.653274E-1,-1.2750866E-2,1.5784375E-1,-7.698344E-2,-1.2534502E-1,1.0221839E-1,1.6347726E-1,1.8319027E-2,-1.2673631E-1,1.2340631E-1,-1.5783156E-1,6.5053076E-2],"categories":[],"categories_nodes":[],"categories_segments":[],"categories_sizes":[],"default_left":[0,0,0,0,0,0,0,0,0,0,0,0,0,0,0,0,0,0,0,0,0,0,0,0,0,0,0],"id":2,"left_children":[1,3,5,7,9,11,13,15,-1,17,19,21,-1,23,25,-1,-1,-1,-1,-1,-1,-1,-1,-1,-1,-1,-1],"loss_changes":[5.2181576E1,3.087871E1,2.9423643E1,9.901768E0,1.9903473E1,5.5681267E0,1.8229408E1,2.325203E0,0E0,9.497475E0,1.2710976E1,1.9049606E0,0E0,1.2587449E1,7.3792334E0,0E0,0E0,0E0,0E0,0E0,0E0,0E0,0E0,0E0,0E0,0E0,0E0],"parents":[2147483647,0,0,1,1,2,2,3,3,4,4,5,5,6,6,7,7,9,9,10,10,11,11,13,13,14,14],"right_children":[2,4,6,8,10,12,14,16,-1,18,20,22,-1,24,26,-1,-1,-1,-1,-1,-1,-1,-1,-1,-1,-1,-1],"split_conditions":[2.0977244E-1,-2.0544121E-2,5.624294E-1,5.1288617E-1,-4.2744452E-1,6.218504E-1,5.92514E-1,1.2754581E0,7.055046E-2,-9.8578274E-2,3.1744143E-1,8.232018E-1,-1.204681E-2,3.740234E-1,1.005992E0,-1.653274E-1,-1.2750866E-2,1.5784375E-1,-7.698344E-2,-1.2534502E-1,1.0221839E-1,1.6347726E-1,1.8319027E-2,-1.2673631E-1,1.2340631E-1,-1.5783156E-1,6.5053076E-2],"split_indices":[29,1689,2521,3887,12335,2777,778,1815,0,7147,2212,2391,0,1542,1028,0,0,0,0,0,0,0,0,0,0,0,0],"split_type":[0,0,0,0,0,0,0,0,0,0,0,0,0,0,0,0,0,0,0,0,0,0,0,0,0,0,0],"sum_hessian":[9.0269295E1,4.667769E1,4.359161E1,2.6037336E1,2.064035E1,2.5675373E1,1.7916239E1,2.4552551E1,1.4847842E0,9.584444E0,1.1055906E1,2.370987E1,1.9655037E0,9.571084E0,8.345154E0,2.3328724E1,1.223827E0,8.100035E0,1.4844095E0,8.595968E0,2.4599378E0,2.2488974E1,1.2208947E0,1.7270914E0,7.843993E0,7.108156E0,1.2369981E0],"tree_param":{"num_deleted":"0","num_feature":"12800","num_nodes":"27","size_leaf_vector":"1"}},{"base_weights":[-2.0666702E-3,-1.0119605E0,4.8705736E-1,-1.3752624E0,1.0011052E0,9.111801E-1,-5.284615E-1,-1.562511E-1,1.01307265E-1,1.3918205E-2,1.2324295E-1,1.0703937E0,-1.1030077E-1,9.369343E-1,-1.03973E0,1.2602843E-1,-6.703497E-2,1.2961124E-1,-1.7507585E-2,-1.391987E-1,7.8910284E-2],"categories":[],"categories_nodes":[],"categories_segments":[],"categories_sizes":[],"default_left":[0,0,0,0,0,0,0,0,0,0,0,0,0,0,0,0,0,0,0,0,0],"id":3,"left_children":[1,3,5,7,9,11,13,-1,-1,-1,-1,15,-1,17,19,-1,-1,-1,-1,-1,-1],"loss_changes":[4.4518856E1,2.2883648E1,2.663432E1,1.2911964E1,8.402438E-1,1.5034115E1,1.485066E1,0E0,0E0,0E0,0E0,1.4246143E1,0E0,2.350431E0,1.0249477E1,0E0,0E0,0E0,0E0,0E0,0E0],"parents":[2147483647,0,0,1,1,2,2,3,3,4,4,5,5,6,6,11,11,13,13,14,14],"right_children":[2,4,6,8,10,12,14,-1,-1,-1,-1,16,-1,18,20,-1,-1,-1,-1,-1,-1],"split_conditions":[-3.4610426E-1,1.39731E-1,7.104236E-1,-1.2074456E-1,-3.2878208E-1,1.3189967E0,-9.03196E-2,-1.562511E-1,1.01307265E-1,1.3918205E-2,1.2324295E-1,9.251471E-1,-1.1030077E-1,-1.7336339E-1,1.2211826E0,1.2602843E-1,-6.703497E-2,1.2961124E-1,-1.7507585E-2,-1.391987E-1,7.8910284E-2],"split_indices":[2461,5668,778,4223,25,1182,8731,0,0,0,0,949,0,239,615,0,0,0,0,0,0],"split_type":[0,0,0,0,0,0,0,0,0,0,0,0,0,0,0,0,0,0,0,0,0],"sum_hessian":[8.812802E1,2.8407063E1,5.9720955E1,2.4332552E1,4.0745106E0,4.219946E1,1.7521498E1,2.2884176E1,1.4483751E0,1.2010456E0,2.8734648E0,3.9542362E1,2.657094E0,4.3166275E0,1.3204871E1,3.590197E1,3.6403928E0,3.137621E0,1.1790063E0,1.1272504E1,1.9323665E0],"tree_param":{"num_deleted":"0","num_feature":"12800","num_nodes":"21","size_leaf_vector":"1"}},{"base_weights":[-1.2591707E-3,3.529177E-1,-1.2428296E0,-2.7469623E-1,1.0909355E0,-1.3839458E0,3.4977164E-2,-8.306318E-1,7.919869E-1,1.4138753E0,-2.7317405E-1,-1.499657E-1,1.6711436E-2,1.1528262E-1,-1.1265164E-1,1.4421317E-1,-6.9657005E-2,-3.5720304E-2,1.5322411E-1,-1.1983506E-1,7.957948E-2],"categories":[],"categories_nodes":[],"categories_segments":[],"categories_sizes":[],"default_left":[0,0,0,0,0,0,0,0,0,0,0,0,0,0,0,0,0,0,0,0,0],"id":4,"left_children":[1,3,5,7,9,11,-1,13,15,17,19,-1,-1,-1,-1,-1,-1,-1,-1,-1,-1],"loss_changes":[3.8545662E1,3.189103E1,4.856455E0,2.298915E1,1.42831E1,3.4943352E0,0E0,1.6113543E1,1.3986372E1,5.92852E0,7.7546177E0,0E0,0E0,0E0,0E0,0E0,0E0,0E0,0E0,0E0,0E0],"parents":[2147483647,0,0,1,1,2,2,3,3,4,4,5,5,7,7,8,8,9,9,10,10],"right_children":[2,4,6,8,10,12,-1,14,16,18,20,-1,-1,-1,-1,-1,-1,-1,-1,-1,-1],"split_conditions":[8.5904545E-1,4.0665683E-1,1.4508438E0,3.77362E-1,9.9068713E-1,1.0216825E0,3.4977164E-2,-1.3844836E0,6.301539E-1,-4.3426074E-2,9.472728E-1,-1.499657E-1,1.6711436E-2,1.1528262E-1,-1.1265164E-1,1.4421317E-1,-6.9657005E-2,-3.5720304E-2,1.5322411E-1,-1.1983506E-1,7.957948E-2],"split_indices":[931,1434,1119,2849,4877,697,0,5514,4154,1691,643,0,0,0,0,0,0,0,0,0,0],"split_type":[0,0,0,0,0,0,0,0,0,0,0,0,0,0,0,0,0,0,0,0,0],"sum_hessian":[8.565901E1,6.720384E1,1.845517E1,3.6657726E1,3.0546116E1,1.707336E1,1.3818097E0,2.4243668E1,1.2414059E1,2.4669392E1,5.8767247E0,1.5918927E1,1.154434E0,2.7711427E0,2.1472525E1,8.662011E0,3.752047E0,1.4190279E0,2.3250364E1,3.0853589E0,2.7913659E0],"tree_param":{"num_deleted":"0","num_feature":"12800","num_nodes":"21","size_leaf_vector":"1"}},{"base_weights":[-2.1456862E-4,-6.105915E-1,6.462855E-1,-1.2187052E0,1.5817966E-1,1.2600389E0,-1.6467343E-1,-1.355494E0,5.9598245E-2,1.0043383E0,-5.9365314E-1,1.3797109E0,-3.7052285E-2,3.340649E-1,-1.2869191E-1,-1.4204663E-1,-4.2792223E-3,1.3531713E-1,-6.344002E-2,-1.0196831E-1,1.027557E-1,1.4431325E-1,1.1167195E-2,-1.1525581E-1,8.7999314E-2],"categories":[],"categories_nodes":[],"categories_segments":[],"categories_sizes":[],"default_left":[0,0,0,0,0,0,0,0,0,0,0,0,0,0,0,0,0,0,0,0,0,0,0,0,0],"id":5,"left_children":[1,3,5,7,9,11,13,15,-1,17,19,21,-1,23,-1,-1,-1,-1,-1,-1,-1,-1,-1,-1,-1],"loss_changes":[3.3497837E1,2.0605732E1,2.0726196E1,6.8880463E0,1.3427611E1,5.112644E0,1.0864886E1,1.9079361E0,0E0,6.4955063E0,8.858496E0,1.6226082E0,0E0,1.2134107E1,0E0,0E0,0E0,0E0,0E0,0E0,0E0,0E0,0E0,0E0,0E0],"parents":[2147483647,0,0,1,1,2,2,3,3,4,4,5,5,6,6,7,7,9,9,10,10,11,11,13,13],"right_children":[2,4,6,8,10,12,14,16,-1,18,20,22,-1,24,-1,-1,-1,-1,-1,-1,-1,-1,-1,-1,-1],"split_conditions":[2.0977244E-1,-2.0544121E-2,5.1435465E-1,5.1288617E-1,-4.2744452E-1,1.2285991E0,8.578465E-1,9.626787E-1,5.9598245E-2,-9.8578274E-2,4.2440987E-1,1.3735927E0,-3.7052285E-2,6.5215373E-1,-1.2869191E-1,-1.4204663E-1,-4.2792223E-3,1.3531713E-1,-6.344002E-2,-1.0196831E-1,1.027557E-1,1.4431325E-1,1.1167195E-2,-1.1525581E-1,8.7999314E-2],"split_indices":[29,1689,2393,3887,12335,5770,800,1667,0,7147,2208,1172,0,2344,0,0,0,0,0,0,0,0,0,0,0],"split_type":[0,0,0,0,0,0,0,0,0,0,0,0,0,0,0,0,0,0,0,0,0,0,0,0,0],"sum_hessian":[8.2888725E1,4.266406E1,4.0224663E1,2.3494312E1,1.9169746E1,2.258103E1,1.7643633E1,2.2082785E1,1.4115286E0,8.861086E0,1.03086605E1,2.1180378E1,1.4006525E0,1.2701342E1,4.9422917E0,2.0963118E1,1.1196659E0,7.4495773E0,1.4115081E0,8.457254E0,1.8514055E0,2.0039988E1,1.1403897E0,3.113029E0,9.588313E0],"tree_param":{"num_deleted":"0","num_feature":"12800","num_nodes":"25","size_leaf_vector":"1"}},{"base_weights":[-8.11737E-4,3.1663352E-1,-1.1198503E0,-2.3820291E-1,9.739703E-1,-1.3146693E0,-1.6380253E-3,-7.868746E-1,6.439167E-1,1.2813548E0,-2.6943073E-1,-1.3536839E-1,-3.8702E-2,8.784192E-2,-8.876572E-2,-1.1209553E-1,8.530917E-2,1.3446848E-1,-6.733305E-2,-3.1425703E-2,1.3940406E-1,-1.0984093E-1,7.000494E-2],"categories":[],"categories_nodes":[],"categories_segments":[],"categories_sizes":[],"default_left":[0,0,0,0,0,0,0,0,0,0,0,0,0,0,0,0,0,0,0,0,0,0,0],"id":6,"left_children":[1,3,5,7,9,11,13,15,17,19,21,-1,-1,-1,-1,-1,-1,-1,-1,-1,-1,-1,-1],"loss_changes":[2.9032774E1,2.3453243E1,3.9323902E0,1.7606314E1,1.1558825E1,3.272438E-2,3.6499884E0,1.3136788E1,1.3919251E1,4.6990013E0,6.1067224E0,0E0,0E0,0E0,0E0,0E0,0E0,0E0,0E0,0E0,0E0,0E0,0E0],"parents":[2147483647,0,0,1,1,2,2,3,3,4,4,5,5,6,6,7,7,8,8,9,9,10,10],"right_children":[2,4,6,8,10,12,14,16,18,20,22,-1,-1,-1,-1,-1,-1,-1,-1,-1,-1,-1,-1],"split_conditions":[8.5904545E-1,4.0665683E-1,1.0087425E0,1.8807772E-1,9.9068713E-1,1.2871727E0,4.7723818E-1,2.614772E-1,5.7577586E-1,-4.3426074E-2,9.472728E-1,-1.3536839E-1,-3.8702E-2,8.784192E-2,-8.876572E-2,-1.1209553E-1,8.530917E-2,1.3446848E-1,-6.733305E-2,-3.1425703E-2,1.3940406E-1,-1.0984093E-1,7.000494E-2],"split_indices":[931,1434,838,2849,4877,2789,575,30,4282,1691,643,0,0,0,0,0,0,0,0,0,0,0,0],"split_type":[0,0,0,0,0,0,0,0,0,0,0,0,0,0,0,0,0,0,0,0,0,0,0],"sum_hessian":[7.9730545E1,6.2669662E1,1.706088E1,3.433025E1,2.8339415E1,1.4379878E1,2.681003E0,2.1232048E1,1.30982E1,2.2697725E1,5.6416893E0,1.3358777E1,1.0211015E0,1.3493302E0,1.3316729E0,1.7901731E1,3.3303182E0,8.536174E0,4.5620255E0,1.3792334E0,2.1318493E1,2.9695296E0,2.6721597E0],"tree_param":{"num_deleted":"0","num_feature":"12800","num_nodes":"23","size_leaf_vector":"1"}},{"base_weights":[-1.3011663E-3,-8.2256806E-1,3.9145803E-1,-1.2496054E0,3.9623466E-1,7.087582E-1,-7.7629995E-1,-1.3071615E-1,-1.0545224E-2,1.1397598E-1,-7.0465875E-1,8.7808436E-1,-1.1785122E-1,-1.1226072E0,7.594868E-2,-1.7484685E-2,-8.449762E-2,9.928576E-2,-6.838801E-2,-1.2973443E-1,1.8741382E-2],"categories":[],"categories_nodes":[],"categories_segments":[],"categories_sizes":[],"default_left":[0,0,0,0,0,0,0,0,0,0,0,0,0,0,0,0,0,0,0,0,0],"id":7,"left_children":[1,3,5,7,9,11,13,-1,-1,-1,15,17,-1,19,-1,-1,-1,-1,-1,-1,-1],"loss_changes":[2.5321201E1,1.3713041E1,2.0227777E1,1.116476E0,6.818266E0,1.4546801E1,7.1413035E0,0E0,0E0,0E0,1.1842656E-1,7.737688E0,0E0,2.5441341E0,0E0,0E0,0E0,0E0,0E0,0E0,0E0],"parents":[2147483647,0,0,1,1,2,2,3,3,4,4,5,5,6,6,10,10,11,11,13,13],"right_children":[2,4,6,8,10,12,14,-1,-1,-1,16,18,-1,20,-1,-1,-1,-1,-1,-1,-1],"split_conditions":[-6.729911E-1,-2.5401402E-1,7.566855E-1,6.555824E-1,-4.278804E-1,1.3189967E0,1.2377169E0,-1.3071615E-1,-1.0545224E-2,1.1397598E-1,1.3704309E-2,1.1993946E0,-1.1785122E-1,1.1006997E0,7.594868E-2,-1.7484685E-2,-8.449762E-2,9.928576E-2,-6.838801E-2,-1.2973443E-1,1.8741382E-2],"split_indices":[5672,3997,930,2851,8283,1182,1009,0,0,0,190,814,0,1127,0,0,0,0,0,0,0],"split_type":[0,0,0,0,0,0,0,0,0,0,0,0,0,0,0,0,0,0,0,0,0],"sum_hessian":[7.650246E1,2.439588E1,5.2106575E1,1.8047295E1,6.3485847E0,4.128247E1,1.0824104E1,1.704727E1,1.0000249E0,3.76826E0,2.5803246E0,3.837426E1,2.9082115E0,9.05199E0,1.7721148E0,1.0105942E0,1.5697304E0,3.6086945E1,2.2873175E0,7.9952245E0,1.0567653E0],"tree_param":{"num_deleted":"0","num_feature":"12800","num_nodes":"21","size_leaf_vector":"1"}},{"base_weights":[-5.0407043E-3,3.0441862E-1,-9.499621E-1,-2.712784E-1,8.552054E-1,-1.1093051E0,8.200084E-2,-6.41136E-1,7.892194E-1,1.1181296E0,-1.5604284E-1,-1.2306063E0,3.8439393E-2,-1.0109331E-1,5.3442895E-2,1.1872651E-1,-7.629445E-2,1.2141379E-1,-4.8639473E-2,-1.2080687E-1,6.8911575E-2,-1.29584E-1,-1.1532119E-2],"categories":[],"categories_nodes":[],"categories_segments":[],"categories_sizes":[],"default_left":[0,0,0,0,0,0,0,0,0,0,0,0,0,0,0,0,0,0,0,0,0,0,0],"id":8,"left_children":[1,3,5,7,9,11,-1,13,15,17,19,21,-1,-1,-1,-1,-1,-1,-1,-1,-1,-1,-1],"loss_changes":[2.2068333E1,1.826252E1,6.1602955E0,1.1708971E1,7.9651012E0,3.6446514E0,0E0,9.986006E0,5.745748E0,4.1917706E0,6.988636E0,1.0457573E0,0E0,0E0,0E0,0E0,0E0,0E0,0E0,0E0,0E0,0E0,0E0],"parents":[2147483647,0,0,1,1,2,2,3,3,4,4,5,5,7,7,8,8,9,9,10,10,11,11],"right_children":[2,4,6,8,10,12,-1,14,16,18,20,22,-1,-1,-1,-1,-1,-1,-1,-1,-1,-1,-1],"split_conditions":[8.359308E-1,3.5701737E-1,1.2778769E0,5.1943004E-1,1.0568125E0,8.575416E-1,8.200084E-2,3.7271744E-1,1.1000565E0,1.8502489E0,8.259242E-1,1.3142005E0,3.8439393E-2,-1.0109331E-1,5.3442895E-2,1.1872651E-1,-7.629445E-2,1.2141379E-1,-4.8639473E-2,-1.2080687E-1,6.8911575E-2,-1.29584E-1,-1.1532119E-2],"split_indices":[906,1434,1129,2849,3648,678,0,3315,718,289,1888,2843,0,0,0,0,0,0,0,0,0,0,0],"split_type":[0,0,0,0,0,0,0,0,0,0,0,0,0,0,0,0,0,0,0,0,0,0,0],"sum_hessian":[7.348032E1,5.5863132E1,1.7617195E1,2.756203E1,2.83011E1,1.6504616E1,1.1125789E0,2.07283E1,6.8337307E0,2.2377314E1,5.9237857E0,1.5427876E1,1.0767403E0,1.587466E1,4.8536406E0,5.626046E0,1.2076848E0,2.1343508E1,1.0338067E0,2.4476416E0,3.476144E0,1.4422411E1,1.0054654E0],"tree_param":{"num_deleted":"0","num_feature":"12800","num_nodes":"23","size_leaf_vector":"1"}},{"base_weights":[-4.789859E-3,2.707917E-1,-9.984871E-1,-2.0491995E-1,8.4717107E-1,-1.1265898E0,3.1508457E-2,-4.8626626E-1,1.13794185E-1,1.1421974E0,-2.622252E-1,-1.2331988E-1,1.4695664E-2,8.819307E-2,-8.613903E-2,-3.110517E-2,1.2577856E-1,-9.920157E-2,6.147341E-2],"categories":[],"categories_nodes":[],"categories_segments":[],"categories_sizes":[],"default_left":[0,0,0,0,0,0,0,0,0,0,0,0,0,0,0,0,0,0,0],"id":9,"left_children":[1,3,5,7,9,11,-1,13,-1,15,17,-1,-1,-1,-1,-1,-1,-1,-1],"loss_changes":[1.9817097E1,1.5711412E1,2.9986706E0,1.258668E1,8.7496605E0,2.1544533E0,0E0,1.46346035E1,0E0,3.848381E0,4.6013494E0,0E0,0E0,0E0,0E0,0E0,0E0,0E0,0E0],"parents":[2147483647,0,0,1,1,2,2,3,3,4,4,5,5,7,7,9,9,10,10],"right_children":[2,4,6,8,10,12,-1,14,-1,16,18,-1,-1,-1,-1,-1,-1,-1,-1],"split_conditions":[8.5904545E-1,4.0665683E-1,1.4508438E0,8.3742297E-1,9.9068713E-1,1.0216825E0,3.1508457E-2,-8.5781556E-1,1.13794185E-1,-4.3426074E-2,9.472728E-1,-1.2331988E-1,1.4695664E-2,8.819307E-2,-8.613903E-2,-3.110517E-2,1.2577856E-1,-9.920157E-2,6.147341E-2],"split_indices":[931,1434,1119,2849,4877,697,0,6030,0,1691,643,0,0,0,0,0,0,0,0],"split_type":[0,0,0,0,0,0,0,0,0,0,0,0,0,0,0,0,0,0,0],"sum_hessian":[7.0378845E1,5.5667965E1,1.4710878E1,3.0850302E1,2.4817663E1,1.3533414E1,1.1774644E0,2.6033787E1,4.8165154E0,1.9580875E1,5.2367887E0,1.251727E1,1.016144E0,5.3111806E0,2.0722605E1,1.318081E0,1.8262793E1,2.7866158E0,2.450173E0],"tree_param":{"num_deleted":"0","num_feature":"12800","num_nodes":"19","size_leaf_vector":"1"}},{"base_weights":[-2.7985151E-3,-7.458999E-1,3.3836308E-1,-1.0679334E0,6.1168724E-1,5.701018E-1,-9.2523E-1,4.721459E-2,-1.1974511E-1,-4.3889243E-2,1.006848E-1,7.4583036E-1,-7.773717E-1,-1.1544348E-1,2.563702E-2,8.4903985E-2,-8.5571766E-2,1.3454171E-2,-1.0450065E-1],"categories":[],"categories_nodes":[],"categories_segments":[],"categories_sizes":[],"default_left":[0,0,0,0,0,0,0,0,0,0,0,0,0,0,0,0,0,0,0],"id":10,"left_children":[1,3,5,7,9,11,13,-1,-1,-1,-1,15,17,-1,-1,-1,-1,-1,-1],"loss_changes":[1.7572046E1,1.018746E1,1.4439327E1,4.153982E0,2.4416938E0,1.0232598E1,2.393259E0,0E0,0E0,0E0,0E0,6.771822E0,1.4079161E0,0E0,0E0,0E0,0E0,0E0,0E0],"parents":[2147483647,0,0,1,1,2,2,3,3,4,4,5,5,6,6,11,11,12,12],"right_children":[2,4,6,8,10,12,14,-1,-1,-1,-1,16,18,-1,-1,-1,-1,-1,-1],"split_conditions":[-5.6094545E-1,-1.2165686E-1,1.2025614E0,-1.3171939E0,-3.3681515E-1,1.0519912E0,1.1289619E0,4.721459E-2,-1.1974511E-1,-4.3889243E-2,1.006848E-1,1.313752E0,-4.6110135E-3,-1.1544348E-1,2.563702E-2,8.4903985E-2,-8.5571766E-2,1.3454171E-2,-1.0450065E-1],"split_indices":[4637,6052,803,474,292,874,868,0,0,0,0,940,3160,0,0,0,0,0,0],"split_type":[0,0,0,0,0,0,0,0,0,0,0,0,0,0,0,0,0,0,0],"sum_hessian":[6.731738E1,2.0808022E1,4.6509357E1,1.6990953E1,3.817068E0,3.976535E1,6.744006E0,1.1128439E0,1.5878109E1,1.0130615E0,2.8040066E0,3.5572693E1,4.192658E0,5.6676044E0,1.0764017E0,3.3860466E1,1.7122271E0,1.0641313E0,3.128527E0],"tree_param":{"num_deleted":"0","num_feature":"12800","num_nodes":"19","size_leaf_vector":"1"}},{"base_weights":[-6.2081376E-3,-4.8146808E-1,4.8340997E-1,-9.9245054E-1,1.3006711E-1,1.0358827E0,-2.0143735E-1,-1.1224625E0,4.8282836E-2,8.4622777E-1,-5.0244737E-1,1.1519274E0,-3.374372E-2,-5.492286E-1,8.072819E-1,-1.6846126E-3,-1.1895763E-1,1.12575844E-1,-4.3858808E-2,-9.577345E-2,5.0204873E-2,1.2131413E-1,1.2934267E-2,1.7044729E-2,-1.1581912E-1,9.375156E-2,1.8531332E-2],"categories":[],"categories_nodes":[],"categories_segments":[],"categories_sizes":[],"default_left":[0,0,0,0,0,0,0,0,0,0,0,0,0,0,0,0,0,0,0,0,0,0,0,0,0,0,0],"id":11,"left_children":[1,3,5,7,9,11,13,15,-1,17,19,21,-1,23,25,-1,-1,-1,-1,-1,-1,-1,-1,-1,-1,-1,-1],"loss_changes":[1.5477586E1,1.0673994E1,1.2606954E1,4.090336E0,7.7840753E0,3.3051014E0,5.8701353E0,1.2638397E0,0E0,3.363851E0,4.712976E0,9.1353226E-1,0E0,5.4993286E0,1.8030834E-1,0E0,0E0,0E0,0E0,0E0,0E0,0E0,0E0,0E0,0E0,0E0,0E0],"parents":[2147483647,0,0,1,1,2,2,3,3,4,4,5,5,6,6,7,7,9,9,10,10,11,11,13,13,14,14],"right_children":[2,4,6,8,10,12,14,16,-1,18,20,22,-1,24,26,-1,-1,-1,-1,-1,-1,-1,-1,-1,-1,-1,-1],"split_conditions":[2.0977244E-1,-2.0544121E-2,5.1435465E-1,5.1288617E-1,-4.2744452E-1,1.2285991E0,1.094589E0,-1.1779829E0,4.8282836E-2,-9.8578274E-2,7.09303E-2,1.2923443E0,-3.374372E-2,4.7587976E-1,1.0499665E0,-1.6846126E-3,-1.1895763E-1,1.12575844E-1,-4.3858808E-2,-9.577345E-2,5.0204873E-2,1.2131413E-1,1.2934267E-2,1.7044729E-2,-1.1581912E-1,9.375156E-2,1.8531332E-2],"split_indices":[29,1689,2393,3887,12335,5770,667,11406,0,7147,1043,1172,0,728,802,0,0,0,0,0,0,0,0,0,0,0,0],"split_type":[0,0,0,0,0,0,0,0,0,0,0,0,0,0,0,0,0,0,0,0,0,0,0,0,0,0,0],"sum_hessian":[6.451401E1,3.274546E1,3.1768547E1,1.7500025E1,1.5245436E1,1.7299946E1,1.4468601E1,1.6302486E1,1.1975379E0,6.9914875E0,8.253948E0,1.610066E1,1.1992863E0,1.1097774E1,3.370827E0,1.0045636E0,1.5297924E1,5.843866E0,1.1476216E0,5.7116838E0,2.5422645E0,1.5015456E1,1.085203E0,5.416556E0,5.681218E0,2.3677163E0,1.0031106E0],"tree_param":{"num_deleted":"0","num_feature":"12800","num_nodes":"27","size_leaf_vector":"1"}},{"base_weights":[-4.833665E-3,2.4051054E-1,-9.0834063E-1,-7.74849E-1,4.5543337E-1,-1.094012E-1,6.0619082E-2,-1.0952407E-1,6.0755413E-2,6.515097E-1,-5.4549617E-1,7.086689E-2,-6.563698E-2,7.5999334E-2,-4.928298E-2,-1.03181064E-1,4.8786905E-2],"categories":[],"categories_nodes":[],"categories_segments":[],"categories_sizes":[],"default_left":[0,0,0,0,0,0,0,0,0,0,0,0,0,0,0,0,0],"id":12,"left_children":[1,3,5,7,9,-1,11,-1,-1,13,15,-1,-1,-1,-1,-1,-1],"loss_changes":[1.4061742E1,1.12431345E1,2.503336E0,4.6906347E0,8.562121E0,0E0,1.9175149E0,0E0,0E0,4.7718964E0,4.2191525E0,0E0,0E0,0E0,0E0,0E0,0E0],"parents":[2147483647,0,0,1,1,2,2,3,3,4,4,6,6,9,9,10,10],"right_children":[2,4,6,8,10,-1,12,-1,-1,14,16,-1,-1,-1,-1,-1,-1],"split_conditions":[8.5904545E-1,-1.0057987E0,1.0087425E0,-3.4831833E-2,9.3160516E-1,-1.094012E-1,4.7723818E-1,-1.0952407E-1,6.0755413E-2,1.0871527E0,1.2438389E0,7.086689E-2,-6.563698E-2,7.5999334E-2,-4.928298E-2,-1.03181064E-1,4.8786905E-2],"split_indices":[931,1415,838,11734,3342,0,575,0,0,1615,423,0,0,0,0,0,0],"split_type":[0,0,0,0,0,0,0,0,0,0,0,0,0,0,0,0,0],"sum_hessian":[6.144988E1,4.8903976E1,1.2545902E1,8.088106E0,4.081587E1,1.0420144E1,2.1257582E0,6.7349195E0,1.3531867E0,3.442191E1,6.39396E0,1.1226531E0,1.003105E0,3.1748056E1,2.6738539E0,4.348844E0,2.045116E0],"tree_param":{"num_deleted":"0","num_feature":"12800","num_nodes":"17","size_leaf_vector":"1"}},{"base_weights":[-8.075405E-3,-2.8268185E-1,7.606121E-1,4.5072767E-1,-5.6264687E-1,1.0013192E0,-6.2636405E-2,-4.6947062E-1,9.4302315E-1,-1.0691934E0,-7.067965E-2,1.15388766E-1,-1.5030193E-2,-9.392285E-2,5.6063343E-2,1.0796137E-1,-5.953082E-3,-1.1624562E-1,3.1928741E-3,3.8500194E-2,-9.495088E-2],"categories":[],"categories_nodes":[],"categories_segments":[],"categories_sizes":[],"default_left":[0,0,0,0,0,0,0,0,0,0,0,0,0,0,0,0,0,0,0,0,0],"id":13,"left_children":[1,3,5,7,9,11,-1,13,15,17,19,-1,-1,-1,-1,-1,-1,-1,-1,-1,-1],"loss_changes":[1.2914106E1,9.5046425E0,6.004219E0,6.332972E0,8.16119E0,2.6523838E0,0E0,3.04254E0,1.2697635E0,1.7021942E0,7.5091596E0,0E0,0E0,0E0,0E0,0E0,0E0,0E0,0E0,0E0,0E0],"parents":[2147483647,0,0,1,1,2,2,3,3,4,4,5,5,7,7,8,8,9,9,10,10],"right_children":[2,4,6,8,10,12,-1,14,16,18,20,-1,-1,-1,-1,-1,-1,-1,-1,-1,-1],"split_conditions":[7.8745544E-1,-4.856359E-1,1.155886E0,-6.6933906E-1,1.3063833E-1,1.1219697E0,-6.2636405E-2,-1.2154514E-3,-6.959654E-2,3.3099762E-1,5.641832E-1,1.15388766E-1,-1.5030193E-2,-9.392285E-2,5.6063343E-2,1.0796137E-1,-5.953082E-3,-1.1624562E-1,3.1928741E-3,3.8500194E-2,-9.495088E-2],"split_indices":[666,8995,803,1415,35,2352,0,5684,10988,2845,731,0,0,0,0,0,0,0,0,0,0],"split_type":[0,0,0,0,0,0,0,0,0,0,0,0,0,0,0,0,0,0,0,0,0],"sum_hessian":[5.916061E1,4.405472E1,1.51058855E1,1.2002491E1,3.205223E1,1.3108914E1,1.9969708E0,4.199379E0,7.803112E0,1.5214033E1,1.68382E1,1.1573651E1,1.535263E0,2.9447196E0,1.2546595E0,6.799823E0,1.0032893E0,1.3974703E1,1.2393302E0,1.1458677E1,5.3795223E0],"tree_param":{"num_deleted":"0","num_feature":"12800","num_nodes":"21","size_leaf_vector":"1"}},{"base_weights":[-8.885712E-3,2.2253563E-1,-8.6918086E-1,-2.0061013E-1,7.1664673E-1,-1.0426891E0,2.8638868E-2,-5.9987605E-1,7.7941096E-1,9.1012293E-1,-6.1241996E-1,-1.1346815E-1,-6.6309865E-3,1.9817673E-2,-1.0896224E-1,1.0639272E-1,-3.7332635E-2,1.03514366E-1,-2.063816E-2,-8.349817E-2,-4.7923005E-3],"categories":[],"categories_nodes":[],"categories_segments":[],"categories_sizes":[],"default_left":[0,0,0,0,0,0,0,0,0,0,0,0,0,0,0,0,0,0,0,0,0],"id":14,"left_children":[1,3,5,7,9,11,-1,13,15,17,19,-1,-1,-1,-1,-1,-1,-1,-1,-1,-1],"loss_changes":[1.1633363E1,9.777505E0,2.7816925E0,1.0485326E1,6.0794144E0,9.1125584E-1,0E0,7.5465937E0,2.9704614E0,2.886425E0,3.779285E-1,0E0,0E0,0E0,0E0,0E0,0E0,0E0,0E0,0E0,0E0],"parents":[2147483647,0,0,1,1,2,2,3,3,4,4,5,5,7,7,8,8,9,9,10,10],"right_children":[2,4,6,8,10,12,-1,14,16,18,20,-1,-1,-1,-1,-1,-1,-1,-1,-1,-1],"split_conditions":[9.2666173E-1,2.5890198E-1,1.3825977E0,3.0604148E-1,1.3815378E0,1.1565775E0,2.8638868E-2,-3.4258005E-1,5.5753E-1,1.0302677E0,6.0434663E-1,-1.1346815E-1,-6.6309865E-3,1.9817673E-2,-1.0896224E-1,1.0639272E-1,-3.7332635E-2,1.03514366E-1,-2.063816E-2,-8.349817E-2,-4.7923005E-3],"split_indices":[906,2076,1937,83,2957,1039,0,9120,2393,728,1054,0,0,0,0,0,0,0,0,0,0],"split_type":[0,0,0,0,0,0,0,0,0,0,0,0,0,0,0,0,0,0,0,0,0],"sum_hessian":[5.6460953E1,4.507658E1,1.1384376E1,2.4601984E1,2.0474594E1,9.983101E0,1.4012743E0,1.7755991E1,6.8459926E0,1.8147959E1,2.3266366E0,8.975332E0,1.0077689E0,6.978962E0,1.0777029E1,5.5525637E0,1.2934293E0,1.6386005E1,1.7619536E0,1.325053E0,1.0015835E0],"tree_param":{"num_deleted":"0","num_feature":"12800","num_nodes":"21","size_leaf_vector":"1"}},{"base_weights":[-1.05531905E-2,-6.6140187E-1,2.7573654E-1,-9.424306E-1,5.882082E-1,9.1341513E-1,-1.3021952E-1,4.335068E-2,-1.08694114E-1,-1.5890632E-4,8.055612E-2,-2.7159637E-2,1.1092557E-1,-6.9500995E-1,3.2713065E-1,-9.7000755E-2,7.3315695E-2,8.483724E-2,-5.3673375E-2],"categories":[],"categories_nodes":[],"categories_segments":[],"categories_sizes":[],"default_left":[0,0,0,0,0,0,0,0,0,0,0,0,0,0,0,0,0,0,0],"id":15,"left_children":[1,3,5,7,9,11,13,-1,-1,-1,-1,-1,-1,15,17,-1,-1,-1,-1],"loss_changes":[1.0418942E1,6.5514803E0,1.0178663E1,3.3197699E0,4.8215425E-1,3.8382359E0,6.58674E0,0E0,0E0,0E0,0E0,0E0,0E0,5.1632433E0,6.887002E0,0E0,0E0,0E0,0E0],"parents":[2147483647,0,0,1,1,2,2,3,3,4,4,5,5,6,6,13,13,14,14],"right_children":[2,4,6,8,10,12,14,-1,-1,-1,-1,-1,-1,16,18,-1,-1,-1,-1],"split_conditions":[-5.6094545E-1,-1.05678335E-1,1.2478149E-1,-1.3171939E0,-2.0698972E-1,-5.483186E-1,2.7857316E-1,4.335068E-2,-1.08694114E-1,-1.5890632E-4,8.055612E-2,-2.7159637E-2,1.1092557E-1,8.3742297E-1,6.081335E-1,-9.7000755E-2,7.3315695E-2,8.483724E-2,-5.3673375E-2],"split_indices":[4637,6052,8992,474,2833,2077,1308,0,0,0,0,0,0,2849,778,0,0,0,0],"split_type":[0,0,0,0,0,0,0,0,0,0,0,0,0,0,0,0,0,0,0],"sum_hessian":[5.393747E1,1.6077276E1,3.7860195E1,1.33261385E1,2.7511375E0,1.4240728E1,2.3619467E1,1.0765057E0,1.2249633E1,1.0081542E0,1.7429833E0,1.9648417E0,1.2275887E1,1.0335865E1,1.3283602E1,8.936013E0,1.3998525E0,8.295915E0,4.987687E0],"tree_param":{"num_deleted":"0","num_feature":"12800","num_nodes":"19","size_leaf_vector":"1"}},{"base_weights":[-7.88694E-3,-6.4731133E-1,2.6985034E-1,-9.3730515E-1,5.2537876E-1,9.253628E-1,-1.4209433E-1,-1.0617923E-1,2.6349688E-2,-1.1642152E-2,7.927456E-2,-2.9782403E-2,1.0480288E0,-6.772253E-1,2.9206523E-1,1.805E-2,1.1128458E-1,-9.687865E-2,7.267673E-2,7.867995E-2,-5.643002E-2],"categories":[],"categories_nodes":[],"categories_segments":[],"categories_sizes":[],"default_left":[0,0,0,0,0,0,0,0,0,0,0,0,0,0,0,0,0,0,0,0,0],"id":16,"left_children":[1,3,5,7,9,11,13,-1,-1,-1,-1,-1,15,17,19,-1,-1,-1,-1,-1,-1],"loss_changes":[9.459365E0,5.976487E0,1.016461E1,2.266141E0,7.5087714E-1,2.4835024E0,5.700179E0,0E0,0E0,0E0,0E0,0E0,5.511551E-1,5.169843E0,6.279608E0,0E0,0E0,0E0,0E0,0E0,0E0],"parents":[2147483647,0,0,1,1,2,2,3,3,4,4,5,5,6,6,12,12,13,13,14,14],"right_children":[2,4,6,8,10,12,14,-1,-1,-1,-1,-1,16,18,20,-1,-1,-1,-1,-1,-1],"split_conditions":[-6.729911E-1,-3.252274E-1,1.2478149E-1,-2.992351E-1,-6.70882E-1,-1.2290918E0,2.7857316E-1,-1.0617923E-1,2.6349688E-2,-1.1642152E-2,7.927456E-2,-2.9782403E-2,-1.084959E0,8.3742297E-1,1.0332987E0,1.805E-2,1.1128458E-1,-9.687865E-2,7.267673E-2,7.867995E-2,-5.643002E-2],"split_indices":[5672,5666,8992,3881,9814,1542,1308,0,0,0,0,0,517,2849,4494,0,0,0,0,0,0],"split_type":[0,0,0,0,0,0,0,0,0,0,0,0,0,0,0,0,0,0,0,0,0],"sum_hessian":[5.1281E1,1.5126091E1,3.6154907E1,1.2288097E1,2.8379939E0,1.3471644E1,2.2683264E1,1.1238742E1,1.0493556E0,1.0006196E0,1.8373743E0,1.0977088E0,1.2373936E1,9.909402E0,1.2773861E1,1.1233572E0,1.1250579E1,8.462093E0,1.4473093E0,8.147924E0,4.6259356E0],"tree_param":{"num_deleted":"0","num_feature":"12800","num_nodes":"21","size_leaf_vector":"1"}},{"base_weights":[-5.705322E-3,-2.535358E-1,6.8680966E-1,1.325949E-1,-7.245375E-1,9.137193E-1,-5.252945E-2,-6.972422E-1,6.008047E-1,-8.64068E-1,5.4427423E-2,1.0481795E-1,-2.0607611E-2,-9.4735056E-2,4.2057145E-2,8.044308E-2,-6.586943E-2,-9.884367E-2,3.779988E-2],"categories":[],"categories_nodes":[],"categories_segments":[],"categories_sizes":[],"default_left":[0,0,0,0,0,0,0,0,0,0,0,0,0,0,0,0,0,0,0],"id":17,"left_children":[1,3,5,7,9,11,-1,13,15,17,-1,-1,-1,-1,-1,-1,-1,-1,-1],"loss_changes":[8.715106E0,6.89424E0,4.16144E0,8.728078E0,3.4788551E0,1.9685678E0,0E0,2.6844432E0,4.174006E0,2.7983656E0,0E0,0E0,0E0,0E0,0E0,0E0,0E0,0E0,0E0],"parents":[2147483647,0,0,1,1,2,2,3,3,4,4,5,5,7,7,8,8,9,9],"right_children":[2,4,6,8,10,12,-1,14,16,18,-1,-1,-1,-1,-1,-1,-1,-1,-1],"split_conditions":[7.8745544E-1,2.414971E-1,1.155886E0,-6.1496997E-1,1.1865909E0,1.2364918E0,-5.252945E-2,-1.0548176E-1,8.8840675E-1,1.2203575E0,5.4427423E-2,1.0481795E-1,-2.0607611E-2,-9.4735056E-2,4.2057145E-2,8.044308E-2,-6.586943E-2,-9.884367E-2,3.779988E-2],"split_indices":[666,879,803,5661,3058,673,0,3876,792,1729,0,0,0,0,0,0,0,0,0],"split_type":[0,0,0,0,0,0,0,0,0,0,0,0,0,0,0,0,0,0,0],"sum_hessian":[4.8764954E1,3.637965E1,1.2385302E1,2.0385746E1,1.5993904E1,1.063969E1,1.7456117E0,7.1767616E0,1.3208983E1,1.469671E1,1.2971944E0,9.55618E0,1.0835102E0,5.98919E0,1.1875714E0,1.1681688E1,1.5272955E0,1.3544676E1,1.1520345E0],"tree_param":{"num_deleted":"0","num_feature":"12800","num_nodes":"19","size_leaf_vector":"1"}},{"base_weights":[-5.681489E-3,2.0372361E-1,-7.9070705E-1,-2.1765663E-1,6.1890835E-1,-9.8478025E-1,1.7923212E-2,-5.258053E-1,6.9173294E-1,9.0014005E-1,-1.9682899E-1,-2.5738899E-2,-1.0463039E-1,-7.450603E-2,7.366266E-2,9.3572825E-2,-1.9284107E-2,1.04409195E-1,-1.756319E-2,-7.682833E-2,6.790303E-2],"categories":[],"categories_nodes":[],"categories_segments":[],"categories_sizes":[],"default_left":[0,0,0,0,0,0,0,0,0,0,0,0,0,0,0,0,0,0,0,0,0],"id":18,"left_children":[1,3,5,7,9,11,-1,13,15,17,19,-1,-1,-1,-1,-1,-1,-1,-1,-1,-1],"loss_changes":[7.966323E0,6.8313417E0,2.097147E0,5.894481E0,4.6599965E0,1.1806488E-1,0E0,4.786462E0,1.3517787E0,2.4614086E0,3.4397883E0,0E0,0E0,0E0,0E0,0E0,0E0,0E0,0E0,0E0,0E0],"parents":[2147483647,0,0,1,1,2,2,3,3,4,4,5,5,7,7,8,8,9,9,10,10],"right_children":[2,4,6,8,10,12,-1,14,16,18,20,-1,-1,-1,-1,-1,-1,-1,-1,-1,-1],"split_conditions":[9.2666173E-1,2.2304557E-1,1.3052117E0,5.1205856E-1,8.4630615E-1,-1.234112E0,1.7923212E-2,5.1239955E-1,7.531514E-1,6.747408E-1,9.11703E-1,-2.5738899E-2,-1.0463039E-1,-7.450603E-2,7.366266E-2,9.3572825E-2,-1.9284107E-2,1.04409195E-1,-1.756319E-2,-7.682833E-2,6.790303E-2],"split_indices":[906,2089,3089,2851,4238,11493,0,2844,7595,929,1347,0,0,0,0,0,0,0,0,0,0],"split_type":[0,0,0,0,0,0,0,0,0,0,0,0,0,0,0,0,0,0,0,0,0],"sum_hessian":[4.6480473E1,3.727727E1,9.203201E0,1.8736717E1,1.8540554E1,7.656022E0,1.5471793E0,1.4309662E1,4.4270563E0,1.37103405E1,4.8302126E0,1.0012981E0,6.654724E0,1.2541344E1,1.7683179E0,3.4246054E0,1.0024507E0,1.2118218E1,1.5921223E0,2.9973896E0,1.8328233E0],"tree_param":{"num_deleted":"0","num_feature":"12800","num_nodes":"21","size_leaf_vector":"1"}},{"base_weights":[-4.162603E-3,1.8456267E-1,-8.3330506E-1,3.292918E-1,-8.5283525E-2,-1.5283186E-3,-9.846728E-2,-9.435714E-2,7.9339504E-1,-4.3626696E-2,9.094669E-2,9.164613E-2,-5.1825818E-2],"categories":[],"categories_nodes":[],"categories_segments":[],"categories_sizes":[],"default_left":[0,0,0,0,0,0,0,0,0,0,0,0,0],"id":19,"left_children":[1,3,5,7,-1,-1,-1,9,11,-1,-1,-1,-1],"loss_changes":[7.2506366E0,5.950579E0,1.0486245E0,6.7324595E0,0E0,0E0,0E0,6.7791033E0,3.1004887E0,0E0,0E0,0E0,0E0],"parents":[2147483647,0,0,1,1,2,2,3,3,7,7,8,8],"right_children":[2,4,6,8,-1,-1,-1,10,12,-1,-1,-1,-1],"split_conditions":[9.528695E-1,1.3913517E0,8.482579E-1,2.5957027E-1,-8.5283525E-2,-1.5283186E-3,-9.846728E-2,3.2383314E-1,1.5822444E0,-4.3626696E-2,9.094669E-2,9.164613E-2,-5.1825818E-2],"split_indices":[931,1186,929,1308,0,0,0,1956,678,0,0,0,0],"split_type":[0,0,0,0,0,0,0,0,0,0,0,0,0],"sum_hessian":[4.4352978E1,3.676265E1,7.590326E0,3.2860767E1,3.9018815E0,1.3571239E0,6.233202E0,1.7595604E1,1.5265164E1,1.35468445E1,4.0487595E0,1.4231211E1,1.0339535E0],"tree_param":{"num_deleted":"0","num_feature":"12800","num_nodes":"13","size_leaf_vector":"1"}},{"base_weights":[-5.884521E-3,-2.3188582E-1,6.429063E-1,3.9462936E-1,-4.8107997E-1,8.755541E-1,-4.8781764E-2,-3.3448035E-1,8.541712E-1,-9.444383E-1,-7.17858E-2,-5.774855E-3,9.886422E-2,-7.6838344E-2,4.566921E-2,9.6175246E-2,1.411033E-2,-1.0285435E-1,-4.551959E-3,6.9286495E-2,-4.8835654E-2],"categories":[],"categories_nodes":[],"categories_segments":[],"categories_sizes":[],"default_left":[0,0,0,0,0,0,0,0,0,0,0,0,0,0,0,0,0,0,0,0,0],"id":20,"left_children":[1,3,5,7,9,11,-1,13,15,17,19,-1,-1,-1,-1,-1,-1,-1,-1,-1,-1],"loss_changes":[6.5437326E0,5.354345E0,3.4607353E0,3.6237173E0,4.505975E0,1.1043148E0,0E0,1.9198289E0,3.5466766E-1,8.021469E-1,4.76206E0,0E0,0E0,0E0,0E0,0E0,0E0,0E0,0E0,0E0,0E0],"parents":[2147483647,0,0,1,1,2,2,3,3,4,4,5,5,7,7,8,8,9,9,10,10],"right_children":[2,4,6,8,10,12,-1,14,16,18,20,-1,-1,-1,-1,-1,-1,-1,-1,-1,-1],"split_conditions":[7.960068E-1,-4.856359E-1,1.3424045E0,-6.1950725E-1,1.3063833E-1,-7.8382564E-1,-4.8781764E-2,-4.7921143E-2,2.801423E-1,7.873879E-1,6.1402404E-1,-5.774855E-3,9.886422E-2,-7.6838344E-2,4.566921E-2,9.6175246E-2,1.411033E-2,-1.0285435E-1,-4.551959E-3,6.9286495E-2,-4.8835654E-2],"split_indices":[666,8995,3376,1416,35,721,0,5556,239,3422,4791,0,0,0,0,0,0,0,0,0,0],"split_type":[0,0,0,0,0,0,0,0,0,0,0,0,0,0,0,0,0,0,0,0,0],"sum_hessian":[4.2611523E1,3.207947E1,1.0532049E1,8.962543E0,2.311693E1,8.922007E0,1.6100434E0,3.5702004E0,5.3923416E0,1.02291355E1,1.28877945E1,1.0171268E0,7.9048796E0,2.324292E0,1.2459086E0,4.38241E0,1.0099314E0,9.222092E0,1.0070438E0,4.3111167E0,8.576678E0],"tree_param":{"num_deleted":"0","num_feature":"12800","num_nodes":"21","size_leaf_vector":"1"}},{"base_weights":[-4.5861634E-3,1.8394029E-1,-7.5069106E-1,3.248362E-1,-8.042915E-2,-9.258796E-2,8.092839E-3,-6.690645E-2,7.5153506E-1,-3.6927324E-2,8.452021E-2,9.177982E-2,-2.78433E-2],"categories":[],"categories_nodes":[],"categories_segments":[],"categories_sizes":[],"default_left":[0,0,0,0,0,0,0,0,0,0,0,0,0],"id":21,"left_children":[1,3,5,7,-1,-1,-1,9,11,-1,-1,-1,-1],"loss_changes":[6.002874E0,5.007537E0,1.3289032E0,5.1562843E0,0E0,0E0,0E0,4.9574647E0,2.7732973E0,0E0,0E0,0E0,0E0],"parents":[2147483647,0,0,1,1,2,2,3,3,7,7,8,8],"right_children":[2,4,6,8,-1,-1,-1,10,12,-1,-1,-1,-1],"split_conditions":[8.5904545E-1,1.3913517E0,1.0087425E0,2.5957027E-1,-8.042915E-2,-9.258796E-2,8.092839E-3,3.2383314E-1,1.0950316E0,-3.6927324E-2,8.452021E-2,9.177982E-2,-2.78433E-2],"split_indices":[931,1186,838,1308,0,0,0,1956,1312,0,0,0,0],"split_type":[0,0,0,0,0,0,0,0,0,0,0,0,0],"sum_hessian":[4.0694653E1,3.3087532E1,7.607121E0,2.9546299E1,3.5412314E0,6.1898293E0,1.4172918E0,1.5843728E1,1.3702572E1,1.2346102E1,3.4976265E0,1.1891833E1,1.8107384E0],"tree_param":{"num_deleted":"0","num_feature":"12800","num_nodes":"13","size_leaf_vector":"1"}},{"base_weights":[-5.3141806E-3,-5.749507E-1,2.3267016E-1,-8.924039E-1,4.724818E-1,8.0615735E-1,-1.316859E-1,-9.91979E-2,-1.733452E-3,6.936575E-2,-3.6664084E-3,3.674245E-2,1.0159808E-1,-5.223222E-1,2.5185356E-1,5.947879E-2,-6.1234172E-2,-7.426952E-2,3.9633747E-2,8.147404E-2,-4.381528E-2],"categories":[],"categories_nodes":[],"categories_segments":[],"categories_sizes":[],"default_left":[0,0,0,0,0,0,0,0,0,0,0,0,0,0,0,0,0,0,0,0,0],"id":22,"left_children":[1,3,5,7,9,11,13,-1,-1,-1,-1,15,-1,17,19,-1,-1,-1,-1,-1,-1],"loss_changes":[5.573444E0,4.4490714E0,6.168711E0,8.228936E-1,4.1629857E-1,1.8051057E0,2.9185002E0,0E0,0E0,0E0,0E0,1.6257783E0,0E0,2.2258682E0,4.264498E0,0E0,0E0,0E0,0E0,0E0,0E0],"parents":[2147483647,0,0,1,1,2,2,3,3,4,4,5,5,6,6,11,11,13,13,14,14],"right_children":[2,4,6,8,10,12,14,-1,-1,-1,-1,16,-1,18,20,-1,-1,-1,-1,-1,-1],"split_conditions":[-3.319815E-1,-1.2165686E-1,-7.813094E-3,-4.0625355E-1,-2.7973476E-1,-3.267657E-1,4.0333843E-1,-9.91979E-2,-1.733452E-3,6.936575E-2,-3.6664084E-3,-2.0580347E-1,1.0159808E-1,7.1111965E-1,7.2536826E-1,5.947879E-2,-6.1234172E-2,-7.426952E-2,3.9633747E-2,8.147404E-2,-4.381528E-2],"split_indices":[2461,6052,9143,5118,8867,3101,2076,0,0,0,0,367,0,2083,1771,0,0,0,0,0,0],"split_type":[0,0,0,0,0,0,0,0,0,0,0,0,0,0,0,0,0,0,0,0,0],"sum_hessian":[3.9126045E1,1.1112168E1,2.8013876E1,8.641218E0,2.4709506E0,1.0412426E1,1.760145E1,7.638432E0,1.0027863E0,1.4699862E0,1.0009643E0,2.4828844E0,7.9295416E0,8.540784E0,9.060665E0,1.3800483E0,1.1028361E0,7.0428514E0,1.4979321E0,4.8904266E0,4.170239E0],"tree_param":{"num_deleted":"0","num_feature":"12800","num_nodes":"21","size_leaf_vector":"1"}},{"base_weights":[-3.1118796E-3,1.8510155E-1,-7.061887E-1,3.3145255E-1,-7.431043E-1,-9.109478E-2,2.1208828E-2,-3.691124E-1,5.510624E-1,-2.279686E-2,-8.257097E-2,-8.287986E-2,4.9273156E-2,6.818047E-2,-4.5982923E-2],"categories":[],"categories_nodes":[],"categories_segments":[],"categories_sizes":[],"default_left":[0,0,0,0,0,0,0,0,0,0,0,0,0,0,0],"id":23,"left_children":[1,3,5,7,9,-1,-1,11,13,-1,-1,-1,-1,-1,-1],"loss_changes":[5.1953444E0,4.4552E0,1.7518964E0,4.427392E0,4.4560432E-3,0E0,0E0,3.2415695E0,3.12915E0,0E0,0E0,0E0,0E0,0E0,0E0],"parents":[2147483647,0,0,1,1,2,2,3,3,4,4,7,7,8,8],"right_children":[2,4,6,8,10,-1,-1,12,14,-1,-1,-1,-1,-1,-1],"split_conditions":[9.2666173E-1,1.2025614E0,1.3052117E0,-7.2647786E-1,-1.3700597E-1,-9.109478E-2,2.1208828E-2,-4.0613142E-1,1.2587423E0,-2.279686E-2,-8.257097E-2,-8.287986E-2,4.9273156E-2,6.818047E-2,-4.5982923E-2],"split_indices":[906,803,3089,4637,5254,0,0,2841,1514,0,0,0,0,0,0],"split_type":[0,0,0,0,0,0,0,0,0,0,0,0,0,0,0],"sum_hessian":[3.7273148E1,2.9983341E1,7.2898045E0,2.6455061E1,3.5282817E0,5.967207E0,1.3225974E0,6.15132E0,2.030374E1,1.0071739E0,2.5211077E0,4.036626E0,2.114694E0,1.8266773E1,2.0369668E0],"tree_param":{"num_deleted":"0","num_feature":"12800","num_nodes":"15","size_leaf_vector":"1"}},{"base_weights":[-8.275298E-3,-2.1885546E-1,5.954658E-1,1.6632456E-1,-5.9689635E-1,8.2047576E-1,-3.993587E-2,-7.3923117E-1,5.2861214E-1,-7.9243195E-1,2.92447E-1,9.5949374E-2,3.4932715E-3,-8.265421E-2,-2.1231005E-2,7.2138056E-2,-5.704092E-2,1.6808672E-2,-9.047752E-2,6.5844834E-2,-2.7814334E-2],"categories":[],"categories_nodes":[],"categories_segments":[],"categories_sizes":[],"default_left":[0,0,0,0,0,0,0,0,0,0,0,0,0,0,0,0,0,0,0,0,0],"id":24,"left_children":[1,3,5,7,9,11,-1,13,15,17,19,-1,-1,-1,-1,-1,-1,-1,-1,-1,-1],"loss_changes":[4.813689E0,4.182684E0,2.5201817E0,5.2043242E0,2.730739E0,8.745661E-1,0E0,3.6583662E-2,2.7551928E0,1.4523592E0,8.7659013E-1,0E0,0E0,0E0,0E0,0E0,0E0,0E0,0E0,0E0,0E0],"parents":[2147483647,0,0,1,1,2,2,3,3,4,4,5,5,7,7,8,8,9,9,10,10],"right_children":[2,4,6,8,10,12,-1,14,16,18,20,-1,-1,-1,-1,-1,-1,-1,-1,-1,-1],"split_conditions":[7.960068E-1,1.9353943E-1,1.3424045E0,-7.947559E-1,1.0660046E0,8.826381E-1,-3.993587E-2,-2.47742E-1,8.453465E-1,-1.5695672E-1,5.7789505E-1,9.5949374E-2,3.4932715E-3,-8.265421E-2,-2.1231005E-2,7.2138056E-2,-5.704092E-2,1.6808672E-2,-9.047752E-2,6.5844834E-2,-2.7814334E-2],"split_indices":[666,878,3376,6136,2802,2009,0,1643,792,1133,687,0,0,0,0,0,0,0,0,0,0],"split_type":[0,0,0,0,0,0,0,0,0,0,0,0,0,0,0,0,0,0,0,0,0],"sum_hessian":[3.5837498E1,2.7042713E1,8.7947855E0,1.3672277E1,1.3370437E1,7.315432E0,1.4793532E0,3.6095572E0,1.006272E1,1.1049915E1,2.3205214E0,6.0273323E0,1.2880999E0,2.6086736E0,1.0008837E0,8.853441E0,1.2092787E0,1.1051183E0,9.944797E0,1.319902E0,1.0006194E0],"tree_param":{"num_deleted":"0","num_feature":"12800","num_nodes":"21","size_leaf_vector":"1"}},{"base_weights":[-9.554152E-3,1.5587877E-1,-7.264098E-1,-6.2131023E-1,3.0797938E-1,-3.9139013E-3,-8.940328E-2,-8.4380545E-2,1.462531E-2,7.4274474E-1,-4.4923235E-2,8.773351E-2,-2.1703161E-2,-5.592341E-2,4.1778877E-2],"categories":[],"categories_nodes":[],"categories_segments":[],"categories_sizes":[],"default_left":[0,0,0,0,0,0,0,0,0,0,0,0,0,0,0],"id":25,"left_children":[1,3,5,7,9,-1,-1,-1,-1,11,13,-1,-1,-1,-1],"loss_changes":[4.294153E0,3.6747546E0,7.4689937E-1,1.0036923E0,3.9171655E0,0E0,0E0,0E0,0E0,1.6627922E0,3.7830734E0,0E0,0E0,0E0,0E0],"parents":[2147483647,0,0,1,1,2,2,3,3,4,4,9,9,10,10],"right_children":[2,4,6,8,10,-1,-1,-1,-1,12,14,-1,-1,-1,-1],"split_conditions":[9.223621E-1,-1.0057987E0,8.482579E-1,-1.05898775E-1,1.4311826E-1,-3.9139013E-3,-8.940328E-2,-8.4380545E-2,1.462531E-2,6.684805E-1,4.0333843E-1,8.773351E-2,-2.1703161E-2,-5.592341E-2,4.1778877E-2],"split_indices":[931,1415,929,8275,624,0,0,0,0,1899,2076,0,0,0,0],"split_type":[0,0,0,0,0,0,0,0,0,0,0,0,0,0,0],"sum_hessian":[3.425481E1,2.8467705E1,5.7871046E0,4.154512E0,2.4313192E1,1.3765615E0,4.410543E0,3.1438637E0,1.0106484E0,1.0398222E1,1.391497E1,9.194733E0,1.2034892E0,6.4912524E0,7.423718E0],"tree_param":{"num_deleted":"0","num_feature":"12800","num_nodes":"15","size_leaf_vector":"1"}},{"base_weights":[-1.2222728E-2,-2.0945829E-1,5.5434054E-1,5.258058E-1,-3.8358563E-1,8.895619E-2,-1.6180609E-1,-1.5458144E-2,7.931363E-2,-6.161926E-1,2.7339938E-1,-6.504854E-2,5.0735213E-2,-7.83242E-2,4.5976885E-2,8.714991E-2,-6.711474E-2],"categories":[],"categories_nodes":[],"categories_segments":[],"categories_sizes":[],"default_left":[0,0,0,0,0,0,0,0,0,0,0,0,0,0,0,0,0],"id":26,"left_children":[1,3,5,7,9,-1,11,-1,-1,13,15,-1,-1,-1,-1,-1,-1],"loss_changes":[3.913509E0,3.5218587E0,2.3164198E0,1.1024976E0,3.4610298E0,0E0,1.5502261E0,0E0,0E0,3.2753248E0,4.1588364E0,0E0,0E0,0E0,0E0,0E0,0E0],"parents":[2147483647,0,0,1,1,2,2,3,3,4,4,6,6,9,9,10,10],"right_children":[2,4,6,8,10,-1,12,-1,-1,14,16,-1,-1,-1,-1,-1,-1],"split_conditions":[7.960068E-1,-8.0860364E-1,7.859043E-1,-1.2159709E0,6.3858086E-1,8.895619E-2,7.89014E-1,-1.5458144E-2,7.931363E-2,8.619403E-1,7.667562E-1,-6.504854E-2,5.0735213E-2,-7.83242E-2,4.5976885E-2,8.714991E-2,-6.711474E-2],"split_indices":[666,6029,816,4764,81,0,867,0,0,2723,3725,0,0,0,0,0,0],"split_type":[0,0,0,0,0,0,0,0,0,0,0,0,0,0,0,0,0],"sum_hessian":[3.2982273E1,2.493281E1,8.049465E0,4.3873363E0,2.0545473E1,5.318007E0,2.7314582E0,1.356541E0,3.030795E0,1.5219181E1,5.3262925E0,1.5947406E0,1.1367176E0,1.3409353E1,1.8098278E0,3.308587E0,2.0177054E0],"tree_param":{"num_deleted":"0","num_feature":"12800","num_nodes":"17","size_leaf_vector":"1"}},{"base_weights":[-7.400717E-3,2.4895722E-1,-4.3163165E-1,-1.5748073E-1,6.733717E-1,-6.04276E-1,6.496282E-2,-4.284338E-1,6.683163E-2,9.2126554E-1,-2.7071252E-2,-7.5616443E-1,3.6549106E-2,-6.616675E-2,6.210602E-2,9.7174846E-2,2.7568245E-2,-8.991753E-2,2.459105E-2],"categories":[],"categories_nodes":[],"categories_segments":[],"categories_sizes":[],"default_left":[0,0,0,0,0,0,0,0,0,0,0,0,0,0,0,0,0,0,0],"id":27,"left_children":[1,3,5,7,9,11,-1,13,-1,15,-1,17,-1,-1,-1,-1,-1,-1,-1],"loss_changes":[3.6388338E0,3.7068188E0,2.744014E0,2.8535333E0,2.6835403E0,1.9526563E0,0E0,2.6747012E0,0E0,7.986069E-3,0E0,1.6778588E0,0E0,0E0,0E0,0E0,0E0,0E0,0E0],"parents":[2147483647,0,0,1,1,2,2,3,3,4,4,5,5,7,7,9,9,11,11],"right_children":[2,4,6,8,10,12,-1,14,-1,16,-1,18,-1,-1,-1,-1,-1,-1,-1],"split_conditions":[3.9941064E-1,2.2304557E-1,1.3039919E0,3.5574064E-1,9.6000683E-1,9.763252E-1,6.496282E-2,8.723111E-1,6.683163E-2,6.771796E-1,-2.7071252E-2,1.0787771E0,3.6549106E-2,-6.616675E-2,6.210602E-2,9.7174846E-2,2.7568245E-2,-8.991753E-2,2.459105E-2],"split_indices":[906,2089,1020,405,4238,754,0,5283,0,938,0,1731,0,0,0,0,0,0,0],"split_type":[0,0,0,0,0,0,0,0,0,0,0,0,0,0,0,0,0,0,0],"sum_hessian":[3.1470936E1,1.9874287E1,1.1596649E1,1.0473422E1,9.400865E0,1.0380359E1,1.2162908E0,8.248264E0,2.2251585E0,7.464925E0,1.9359399E0,9.165143E0,1.2152157E0,7.0508575E0,1.1974066E0,6.454939E0,1.0099856E0,8.110361E0,1.0547817E0],"tree_param":{"num_deleted":"0","num_feature":"12800","num_nodes":"19","size_leaf_vector":"1"}},{"base_weights":[-5.7795044E-4,5.0236315E-1,-2.110627E-1,-3.2349294E-1,7.779437E-1,-7.767424E-1,1.3219474E-1,1.0261605E-2,-5.8007922E-2,8.964906E-2,1.7809597E-3,-9.363312E-2,1.0655821E-2,6.012575E-1,-2.7434137E-1,7.706342E-2,-2.2408424E-2,-5.106007E-2,5.2289177E-2],"categories":[],"categories_nodes":[],"categories_segments":[],"categories_sizes":[],"default_left":[0,0,0,0,0,0,0,0,0,0,0,0,0,0,0,0,0,0,0],"id":28,"left_children":[1,3,5,7,9,11,13,-1,-1,-1,-1,-1,-1,15,17,-1,-1,-1,-1],"loss_changes":[3.39133E0,2.4028184E0,4.487522E0,3.9530855E-1,6.491227E-1,1.3224311E0,3.0078785E0,0E0,0E0,0E0,0E0,0E0,0E0,1.1841345E0,1.9006329E0,0E0,0E0,0E0,0E0],"parents":[2147483647,0,0,1,1,2,2,3,3,4,4,5,5,6,6,13,13,14,14],"right_children":[2,4,6,8,10,12,14,-1,-1,-1,-1,-1,-1,16,18,-1,-1,-1,-1],"split_conditions":[-4.856359E-1,-9.7376806E-1,1.5557235E-1,-7.1605396E-1,2.2668992E-1,2.8621942E-1,3.360025E-1,1.0261605E-2,-5.8007922E-2,8.964906E-2,1.7809597E-3,-9.363312E-2,1.0655821E-2,9.6853656E-1,1.0483488E0,7.706342E-2,-2.2408424E-2,-5.106007E-2,5.2289177E-2],"split_indices":[8995,5841,35,11439,7639,3227,5005,0,0,0,0,0,0,790,1039,0,0,0,0],"split_type":[0,0,0,0,0,0,0,0,0,0,0,0,0,0,0,0,0,0,0],"sum_hessian":[3.003396E1,8.451911E0,2.1582048E1,2.0711765E0,6.380735E0,7.673484E0,1.39085655E1,1.0039701E0,1.0672064E0,5.3646975E0,1.0160372E0,6.448394E0,1.2250897E0,6.23529E0,7.6732755E0,5.2285676E0,1.0067222E0,6.196487E0,1.476789E0],"tree_param":{"num_deleted":"0","num_feature":"12800","num_nodes":"19","size_leaf_vector":"1"}},{"base_weights":[6.924801E-5,-5.391753E-1,1.890365E-1,-7.9966974E-1,3.4065932E-2,7.2420233E-1,-1.2442419E-1,-1.5745565E-2,-8.8856004E-2,-1.4639899E-2,8.928169E-2,-6.0556775E-1,1.6659243E-1,-8.665723E-2,1.4959166E-2,7.838816E-2,-2.0274697E-2],"categories":[],"categories_nodes":[],"categories_segments":[],"categories_sizes":[],"default_left":[0,0,0,0,0,0,0,0,0,0,0,0,0,0,0,0,0],"id":29,"left_children":[1,3,5,7,-1,9,11,-1,-1,-1,-1,13,15,-1,-1,-1,-1],"loss_changes":[3.134129E0,2.1016724E0,3.9107728E0,2.2868967E-1,0E0,1.3871775E0,2.2314649E0,0E0,0E0,0E0,0E0,1.30248E0,2.4993904E0,0E0,0E0,0E0,0E0],"parents":[2147483647,0,0,1,1,2,2,3,3,5,5,6,6,11,11,12,12],"right_children":[2,4,6,8,-1,10,12,-1,-1,-1,-1,14,16,-1,-1,-1,-1],"split_conditions":[-6.817979E-1,-1.2165686E-1,1.2478149E-1,-1.0555925E0,3.4065932E-2,-5.483186E-1,3.370233E-1,-1.5745565E-2,-8.8856004E-2,-1.4639899E-2,8.928169E-2,3.197269E-1,5.3937006E-1,-8.665723E-2,1.4959166E-2,7.838816E-2,-2.0274697E-2],"split_indices":[4637,6052,8992,601,0,2077,33,0,0,0,0,1939,5645,0,0,0,0],"split_type":[0,0,0,0,0,0,0,0,0,0,0,0,0,0,0,0,0],"sum_hessian":[2.8756805E1,6.98133E0,2.1775475E1,5.456829E0,1.5245012E0,7.5592895E0,1.4216186E1,1.0004113E0,4.4564176E0,1.2478846E0,6.311405E0,4.950521E0,9.265664E0,3.569325E0,1.3811961E0,3.0483942E0,6.2172704E0],"tree_param":{"num_deleted":"0","num_feature":"12800","num_nodes":"17","size_leaf_vector":"1"}},{"base_weights":[-1.8245993E-4,1.6408733E-1,-6.125538E-1,2.976725E-1,-6.611182E-2,-8.059757E-2,1.954952E-2,-9.4747506E-2,6.573783E-1,-5.1395006E-2,4.225404E-2,8.013426E-2,-3.4091048E-2],"categories":[],"categories_nodes":[],"categories_segments":[],"categories_sizes":[],"default_left":[0,0,0,0,0,0,0,0,0,0,0,0,0],"id":30,"left_children":[1,3,5,7,-1,-1,-1,9,11,-1,-1,-1,-1],"loss_changes":[2.9748456E0,2.767329E0,1.1351798E0,2.9925704E0,0E0,0E0,0E0,2.5595994E0,1.8479123E0,0E0,0E0,0E0,0E0],"parents":[2147483647,0,0,1,1,2,2,3,3,7,7,8,8],"right_children":[2,4,6,8,-1,-1,-1,10,12,-1,-1,-1,-1],"split_conditions":[9.2666173E-1,1.2025614E0,1.3052117E0,1.5663084E-1,-6.611182E-2,-8.059757E-2,1.954952E-2,8.258501E-2,1.4307481E0,-5.1395006E-2,4.225404E-2,8.013426E-2,-3.4091048E-2],"split_indices":[906,803,3089,1701,0,0,0,722,885,0,0,0,0],"split_type":[0,0,0,0,0,0,0,0,0,0,0,0,0],"sum_hessian":[2.7573574E1,2.2318611E1,5.2549644E0,1.9759237E1,2.5593727E0,4.2421026E0,1.0128621E0,9.802177E0,9.957061E0,5.417979E0,4.384198E0,8.874537E0,1.0825227E0],"tree_param":{"num_deleted":"0","num_feature":"12800","num_nodes":"13","size_leaf_vector":"1"}},{"base_weights":[-3.3310442E-3,-1.9217929E-1,5.141139E-1,1.3456321E-1,-5.7180786E-1,8.3928786E-2,-1.5399058E-1,-5.3444415E-1,4.9267635E-1,-7.315088E-1,2.8368792E-2,-5.7134505E-2,3.9813474E-2,-7.863487E-2,1.7952997E-2,6.619347E-2,-3.455699E-2,1.2076542E-2,-8.661198E-2],"categories":[],"categories_nodes":[],"categories_segments":[],"categories_sizes":[],"default_left":[0,0,0,0,0,0,0,0,0,0,0,0,0,0,0,0,0,0,0],"id":31,"left_children":[1,3,5,7,9,-1,11,13,15,17,-1,-1,-1,-1,-1,-1,-1,-1,-1],"loss_changes":[2.7932413E0,2.672968E0,1.7900479E0,3.1520154E0,1.5561881E0,0E0,9.988746E-1,9.8352635E-1,1.4168217E0,1.0910053E0,0E0,0E0,0E0,0E0,0E0,0E0,0E0,0E0,0E0],"parents":[2147483647,0,0,1,1,2,2,3,3,4,4,6,6,7,7,8,8,9,9],"right_children":[2,4,6,8,10,-1,12,14,16,18,-1,-1,-1,-1,-1,-1,-1,-1,-1],"split_conditions":[7.8745544E-1,2.414971E-1,7.859043E-1,-6.1496997E-1,1.1687834E0,8.3928786E-2,1.1620386E0,-6.8310216E-2,8.628791E-1,-9.108939E-1,2.8368792E-2,-5.7134505E-2,3.9813474E-2,-7.863487E-2,1.7952997E-2,6.619347E-2,-3.455699E-2,1.2076542E-2,-8.661198E-2],"split_indices":[666,879,816,5661,1997,0,688,1431,792,6027,0,0,0,0,0,0,0,0,0],"split_type":[0,0,0,0,0,0,0,0,0,0,0,0,0,0,0,0,0,0,0],"sum_hessian":[2.6573458E1,1.9928787E1,6.64467E0,1.1057365E1,8.871423E0,4.297034E0,2.3476362E0,3.6835568E0,7.3738084E0,7.5979877E0,1.2734354E0,1.31717E0,1.0304662E0,2.6479409E0,1.0356158E0,6.3100247E0,1.0637835E0,1.0503937E0,6.5475936E0],"tree_param":{"num_deleted":"0","num_feature":"12800","num_nodes":"19","size_leaf_vector":"1"}},{"base_weights":[-3.6087374E-3,1.4503188E-1,-6.551994E-1,2.667911E-1,-6.593459E-2,-4.070751E-3,-8.027903E-2,-8.120153E-2,6.317507E-1,-3.4601297E-2,6.89904E-2,7.85119E-2,-2.6208138E-2],"categories":[],"categories_nodes":[],"categories_segments":[],"categories_sizes":[],"default_left":[0,0,0,0,0,0,0,0,0,0,0,0,0],"id":32,"left_children":[1,3,5,7,-1,-1,-1,9,11,-1,-1,-1,-1],"loss_changes":[2.6539507E0,2.3631072E0,4.2884254E-1,2.6050673E0,0E0,0E0,0E0,2.521505E0,1.5668285E0,0E0,0E0,0E0,0E0],"parents":[2147483647,0,0,1,1,2,2,3,3,7,7,8,8],"right_children":[2,4,6,8,-1,-1,-1,10,12,-1,-1,-1,-1],"split_conditions":[9.223621E-1,1.3913517E0,8.482579E-1,2.3572712E-1,-6.593459E-2,-4.070751E-3,-8.027903E-2,3.2383314E-1,9.394915E-1,-3.4601297E-2,6.89904E-2,7.85119E-2,-2.6208138E-2],"split_indices":[931,1186,929,1308,0,0,0,1956,819,0,0,0,0],"split_type":[0,0,0,0,0,0,0,0,0,0,0,0,0],"sum_hessian":[2.5420761E1,2.1331944E1,4.0888166E0,1.9107895E1,2.2240489E0,1.0389562E0,3.0498607E0,1.0179318E1,8.928576E0,7.9875336E0,2.191785E0,7.7247505E0,1.203826E0],"tree_param":{"num_deleted":"0","num_feature":"12800","num_nodes":"13","size_leaf_vector":"1"}},{"base_weights":[-5.5802423E-3,5.795755E-1,-1.594849E-1,-1.2039669E-2,7.672038E-2,-4.60217E-1,2.7330956E-1,-6.667206E-1,3.2415378E-1,5.0973964E-1,-4.4273898E-2,-7.874089E-2,1.900813E-2,6.2180556E-2,-1.8436575E-2,7.081809E-2,-1.7089138E-2],"categories":[],"categories_nodes":[],"categories_segments":[],"categories_sizes":[],"default_left":[0,0,0,0,0,0,0,0,0,0,0,0,0,0,0,0,0],"id":33,"left_children":[1,3,5,-1,-1,7,9,11,13,15,-1,-1,-1,-1,-1,-1,-1],"loss_changes":[2.3911898E0,8.188151E-1,2.8582559E0,0E0,0E0,2.282834E0,1.7890463E0,1.2279315E0,6.1897624E-1,1.1214659E0,0E0,0E0,0E0,0E0,0E0,0E0,0E0],"parents":[2147483647,0,0,1,1,2,2,5,5,6,6,7,7,8,8,9,9],"right_children":[2,4,6,-1,-1,8,10,12,14,16,-1,-1,-1,-1,-1,-1,-1],"split_conditions":[-8.0363625E-1,-1.2159709E0,4.8074198E-1,-1.2039669E-2,7.672038E-2,5.858899E-1,9.9028486E-1,9.143185E-1,5.2423453E-1,1.2624037E0,-4.4273898E-2,-7.874089E-2,1.900813E-2,6.2180556E-2,-1.8436575E-2,7.081809E-2,-1.7089138E-2],"split_indices":[6029,4764,1363,0,0,81,799,1636,2445,5773,0,0,0,0,0,0,0],"split_type":[0,0,0,0,0,0,0,0,0,0,0,0,0,0,0,0,0],"sum_hessian":[2.4525232E1,4.5312624E0,1.999397E1,1.0336009E0,3.4976614E0,1.1759434E1,8.234537E0,9.427438E0,2.331996E0,6.407112E0,1.827425E0,8.334446E0,1.0929915E0,1.3304611E0,1.0015349E0,4.9294343E0,1.4776775E0],"tree_param":{"num_deleted":"0","num_feature":"12800","num_nodes":"17","size_leaf_vector":"1"}},{"base_weights":[-2.8320404E-3,1.3807276E-1,-6.252441E-1,2.535408E-1,-6.2451214E-2,-4.8848554E-3,-7.7186905E-2,-3.444455E-2,6.45821E-1,-2.8772755E-2,6.1341703E-2,8.530161E-2,-2.3053376E-2],"categories":[],"categories_nodes":[],"categories_segments":[],"categories_sizes":[],"default_left":[0,0,0,0,0,0,0,0,0,0,0,0,0],"id":34,"left_children":[1,3,5,7,-1,-1,-1,9,11,-1,-1,-1,-1],"loss_changes":[2.2408533E0,1.9943523E0,3.6084569E-1,2.1483805E0,0E0,0E0,0E0,2.113143E0,1.652533E0,0E0,0E0,0E0,0E0],"parents":[2147483647,0,0,1,1,2,2,3,3,7,7,8,8],"right_children":[2,4,6,8,-1,-1,-1,10,12,-1,-1,-1,-1],"split_conditions":[9.223621E-1,1.3913517E0,9.3408394E-1,4.5554277E-1,-6.2451214E-2,-4.8848554E-3,-7.7186905E-2,6.146032E-1,1.1861777E0,-2.8772755E-2,6.1341703E-2,8.530161E-2,-2.3053376E-2],"split_indices":[931,1186,929,1306,0,0,0,2465,1388,0,0,0,0],"split_type":[0,0,0,0,0,0,0,0,0,0,0,0,0],"sum_hessian":[2.3566742E1,1.9850948E1,3.7157936E0,1.7820198E1,2.0307503E0,1.0239009E0,2.6918929E0,1.0802174E1,7.018025E0,8.1656685E0,2.6365056E0,5.6975856E0,1.3204393E0],"tree_param":{"num_deleted":"0","num_feature":"12800","num_nodes":"13","size_leaf_vector":"1"}},{"base_weights":[-4.347098E-3,4.519781E-1,-1.9741234E-1,7.6607615E-2,-1.9393882E-1,-7.159626E-1,1.085613E-1,-5.8065332E-2,3.0616477E-2,-8.742019E-2,2.3623544E-3,6.454662E-1,-1.7832991E-1,1.3395018E-2,7.606306E-2,-3.7199598E-2,5.6455947E-2],"categories":[],"categories_nodes":[],"categories_segments":[],"categories_sizes":[],"default_left":[0,0,0,0,0,0,0,0,0,0,0,0,0,0,0,0,0],"id":35,"left_children":[1,3,5,-1,7,9,11,-1,-1,-1,-1,13,15,-1,-1,-1,-1],"loss_changes":[2.183283E0,1.6439203E0,2.8382015E0,0E0,7.984815E-1,7.916622E-1,1.9342906E0,0E0,0E0,0E0,0E0,1.5315616E-1,1.4301744E0,0E0,0E0,0E0,0E0],"parents":[2147483647,0,0,1,1,2,2,4,4,5,5,6,6,11,11,12,12],"right_children":[2,4,6,-1,8,10,12,-1,-1,-1,-1,14,16,-1,-1,-1,-1],"split_conditions":[-4.856359E-1,-1.6342312E-1,1.5557235E-1,7.6607615E-2,-6.850427E-1,1.0159918E-1,6.5255165E-1,-5.8065332E-2,3.0616477E-2,-8.742019E-2,2.3623544E-3,1.04083635E-1,1.2458241E0,1.3395018E-2,7.606306E-2,-3.7199598E-2,5.6455947E-2],"split_indices":[8995,5720,35,0,5286,27,9000,0,0,0,0,87,1266,0,0,0,0],"split_type":[0,0,0,0,0,0,0,0,0,0,0,0,0,0,0,0,0],"sum_hessian":[2.2768948E1,6.3705587E0,1.639839E1,4.1610727E0,2.209486E0,5.5880566E0,1.0810333E1,1.155166E0,1.05432E0,4.453242E0,1.1348147E0,3.3294823E0,7.4808507E0,1.0093695E0,2.3201127E0,6.3299384E0,1.1509124E0],"tree_param":{"num_deleted":"0","num_feature":"12800","num_nodes":"17","size_leaf_vector":"1"}},{"base_weights":[-9.2902215E-4,-3.966912E-1,2.1183647E-1,-6.291699E-1,4.4580482E-2,5.040488E-1,-3.3129582E-1,1.5390009E-2,-8.1740044E-2,9.4174035E-3,7.621917E-1,-6.680736E-1,2.6064089E-2,6.0223736E-2,-5.4987676E-2,8.47856E-2,1.4790006E-2,-7.992053E-2,-1.2942654E-2],"categories":[],"categories_nodes":[],"categories_segments":[],"categories_sizes":[],"default_left":[0,0,0,0,0,0,0,0,0,0,0,0,0,0,0,0,0,0,0],"id":36,"left_children":[1,3,5,7,-1,9,11,-1,-1,13,15,17,-1,-1,-1,-1,-1,-1,-1],"loss_changes":[2.0118015E0,1.9164712E0,2.6335244E0,1.151839E0,0E0,1.3336859E0,1.37818E0,0E0,0E0,1.8608562E0,2.3704958E-1,1.8829918E-1,0E0,0E0,0E0,0E0,0E0,0E0,0E0],"parents":[2147483647,0,0,1,1,2,2,3,3,5,5,6,6,9,9,10,10,11,11],"right_children":[2,4,6,8,-1,10,12,-1,-1,14,16,18,-1,-1,-1,-1,-1,-1,-1],"split_conditions":[-1.02674596E-1,3.8781863E-1,7.4980116E-1,-9.470697E-1,4.4580482E-2,1.2632021E-1,9.786311E-1,1.5390009E-2,-8.1740044E-2,-1.7210579E-1,6.872166E-1,8.94166E-1,2.6064089E-2,6.0223736E-2,-5.4987676E-2,8.47856E-2,1.4790006E-2,-7.992053E-2,-1.2942654E-2],"split_indices":[2589,4388,5006,6030,0,1436,1906,0,0,2651,434,2073,0,0,0,0,0,0,0],"split_type":[0,0,0,0,0,0,0,0,0,0,0,0,0,0,0,0,0,0,0],"sum_hessian":[2.1893871E1,7.352722E0,1.454115E1,5.961038E0,1.3916842E0,9.50129E0,5.03986E0,1.1905482E0,4.7704897E0,3.6136339E0,5.8876557E0,3.1302853E0,1.9095747E0,1.7169664E0,1.8966676E0,4.8334093E0,1.0542465E0,2.128405E0,1.0018799E0],"tree_param":{"num_deleted":"0","num_feature":"12800","num_nodes":"19","size_leaf_vector":"1"}},{"base_weights":[-2.2917005E-4,2.2290835E-1,-3.5982764E-1,-1.3320097E-1,5.7934517E-1,-5.364231E-1,4.858128E-2,-4.0047103E-1,5.1125634E-2,8.22769E-2,-2.173753E-2,1.5955789E-2,-6.6667515E-1,3.8964227E-2,-6.5730885E-2,3.2701693E-4,-7.916256E-2],"categories":[],"categories_nodes":[],"categories_segments":[],"categories_sizes":[],"default_left":[0,0,0,0,0,0,0,0,0,0,0,0,0,0,0,0,0],"id":37,"left_children":[1,3,5,7,9,11,-1,13,-1,-1,-1,-1,15,-1,-1,-1,-1],"loss_changes":[1.8417671E0,1.8751111E0,1.5730978E0,1.5652496E0,1.5880368E0,8.085532E-1,0E0,1.5029192E0,0E0,0E0,0E0,0E0,5.6493783E-1,0E0,0E0,0E0,0E0],"parents":[2147483647,0,0,1,1,2,2,3,3,4,4,5,5,7,7,12,12],"right_children":[2,4,6,8,10,12,-1,14,-1,-1,-1,-1,16,-1,-1,-1,-1],"split_conditions":[3.9941064E-1,2.2304557E-1,1.4483019E0,6.390915E-1,9.6000683E-1,1.8199195E-1,4.858128E-2,-9.990614E-1,5.1125634E-2,8.22769E-2,-2.173753E-2,1.5955789E-2,-9.844438E-1,3.8964227E-2,-6.5730885E-2,3.2701693E-4,-7.916256E-2],"split_indices":[906,2089,2966,2595,4238,910,0,6030,0,0,0,0,11568,0,0,0,0],"split_type":[0,0,0,0,0,0,0,0,0,0,0,0,0,0,0,0,0],"sum_hessian":[2.0953646E1,1.3164777E1,7.7888694E0,6.898707E0,6.2660694E0,6.7458014E0,1.0430679E0,5.143981E0,1.7547258E0,4.774585E0,1.4914848E0,1.0279773E0,5.717824E0,1.1350714E0,4.0089097E0,1.0518675E0,4.6659565E0],"tree_param":{"num_deleted":"0","num_feature":"12800","num_nodes":"17","size_leaf_vector":"1"}},{"base_weights":[3.1198934E-3,-4.3518856E-1,1.8783556E-1,-7.100821E-1,3.475907E-2,6.336337E-1,-1.3263223E-1,-8.039554E-2,-1.6283398E-2,-7.96183E-3,7.79666E-2,-6.2180644E-1,2.1820001E-1,-7.8017525E-2,-4.456002E-3,6.456234E-2,-3.261597E-2],"categories":[],"categories_nodes":[],"categories_segments":[],"categories_sizes":[],"default_left":[0,0,0,0,0,0,0,0,0,0,0,0,0,0,0,0,0],"id":38,"left_children":[1,3,5,7,-1,9,11,-1,-1,-1,-1,13,15,-1,-1,-1,-1],"loss_changes":[1.7915823E0,1.6590236E0,2.3064365E0,1.3549328E-1,0E0,7.577393E-1,1.8307672E0,0E0,0E0,0E0,0E0,3.6609995E-1,1.721113E0,0E0,0E0,0E0,0E0],"parents":[2147483647,0,0,1,1,2,2,3,3,5,5,6,6,11,11,12,12],"right_children":[2,4,6,8,-1,10,12,-1,-1,-1,-1,14,16,-1,-1,-1,-1],"split_conditions":[-4.753492E-1,-2.2019315E-1,2.5687137E-1,-4.8173383E-1,3.475907E-2,-5.2321666E-1,4.0333843E-1,-8.039554E-2,-1.6283398E-2,-7.96183E-3,7.79666E-2,5.095025E-1,7.035111E-1,-7.8017525E-2,-4.456002E-3,6.456234E-2,-3.261597E-2],"split_indices":[3997,5668,6158,6433,0,1310,2076,0,0,0,0,2465,1770,0,0,0,0],"split_type":[0,0,0,0,0,0,0,0,0,0,0,0,0,0,0,0,0],"sum_hessian":[2.0118908E1,5.562874E0,1.4556034E1,4.185793E0,1.3770809E0,5.678935E0,8.8771E0,3.1725037E0,1.0132895E0,1.0424049E0,4.63653E0,3.384972E0,5.4921274E0,2.3803673E0,1.0046048E0,2.9722986E0,2.519829E0],"tree_param":{"num_deleted":"0","num_feature":"12800","num_nodes":"17","size_leaf_vector":"1"}},{"base_weights":[8.2772603E-4,-1.7429195E-1,4.5846105E-1,8.775596E-2,-5.8656365E-1,7.653987E-2,-1.4040636E-2,-5.387241E-1,4.083414E-1,-7.5964975E-1,1.0764217E-2,-6.95148E-2,-4.1727866E-3,6.850389E-2,-1.4580314E-2,-8.348387E-2,-2.3399761E-2],"categories":[],"categories_nodes":[],"categories_segments":[],"categories_sizes":[],"default_left":[0,0,0,0,0,0,0,0,0,0,0,0,0,0,0,0,0],"id":39,"left_children":[1,3,5,7,9,-1,-1,11,13,15,-1,-1,-1,-1,-1,-1,-1],"loss_changes":[1.7075342E0,1.7166536E0,1.1912982E0,2.287316E0,8.171251E-1,0E0,0E0,2.7539384E-1,1.2311348E0,3.162384E-3,0E0,0E0,0E0,0E0,0E0,0E0,0E0],"parents":[2147483647,0,0,1,1,2,2,3,3,4,4,7,7,8,8,9,9],"right_children":[2,4,6,8,10,-1,-1,12,14,16,-1,-1,-1,-1,-1,-1,-1],"split_conditions":[7.8745544E-1,3.666074E-1,7.859043E-1,-7.1694386E-1,8.312133E-1,7.653987E-2,-1.4040636E-2,-8.68106E-1,5.938904E-1,1.0632198E0,1.0764217E-2,-6.95148E-2,-4.1727866E-3,6.850389E-2,-1.4580314E-2,-8.348387E-2,-2.3399761E-2],"split_indices":[666,5005,816,5666,1040,0,0,5119,10276,1302,0,0,0,0,0,0,0],"split_type":[0,0,0,0,0,0,0,0,0,0,0,0,0,0,0,0,0],"sum_hessian":[1.9309658E1,1.4413341E1,4.896318E0,9.293409E0,5.119931E0,3.0533214E0,1.8429964E0,2.9155247E0,6.3778844E0,4.022685E0,1.0972462E0,1.914317E0,1.0012077E0,4.096297E0,2.2815876E0,3.0046992E0,1.0179859E0],"tree_param":{"num_deleted":"0","num_feature":"12800","num_nodes":"17","size_leaf_vector":"1"}},{"base_weights":[-1.889565E-3,-2.2929148E-1,3.2936883E-1,-4.4147372E-1,3.5836074E-1,7.013908E-1,-2.2667506E-1,-6.00119E-1,3.354146E-2,5.9161782E-2,-1.4063738E-2,7.989407E-2,1.4561913E-2,-5.73256E-2,4.144325E-2,1.5015775E-2,-7.279231E-2],"categories":[],"categories_nodes":[],"categories_segments":[],"categories_sizes":[],"default_left":[0,0,0,0,0,0,0,0,0,0,0,0,0,0,0,0,0],"id":40,"left_children":[1,3,5,7,9,11,13,15,-1,-1,-1,-1,-1,-1,-1,-1,-1],"loss_changes":[1.5523485E0,1.681216E0,1.8946826E0,1.3625705E0,5.2459985E-1,1.6945267E-1,1.1528463E0,8.9395165E-1,0E0,0E0,0E0,0E0,0E0,0E0,0E0,0E0,0E0],"parents":[2147483647,0,0,1,1,2,2,3,3,4,4,5,5,6,6,7,7],"right_children":[2,4,6,8,10,12,14,16,-1,-1,-1,-1,-1,-1,-1,-1,-1],"split_conditions":[5.009926E-1,5.4374695E-1,1.1573925E0,5.6567216E-1,2.0539422E-1,6.8936825E-1,1.094589E0,-1.1315064E0,3.354146E-2,5.9161782E-2,-1.4063738E-2,7.989407E-2,1.4561913E-2,-5.73256E-2,4.144325E-2,1.5015775E-2,-7.279231E-2],"split_indices":[1283,1778,3712,3315,1881,1515,667,11502,0,0,0,0,0,0,0,0,0],"split_type":[0,0,0,0,0,0,0,0,0,0,0,0,0,0,0,0,0],"sum_hessian":[1.860508E1,1.1214427E1,7.3906517E0,8.4221945E0,2.7922325E0,4.2714424E0,3.1192093E0,7.182932E0,1.2392627E0,1.7762921E0,1.0159404E0,3.2614527E0,1.0099895E0,2.0933728E0,1.0258365E0,1.0200135E0,6.1629186E0],"tree_param":{"num_deleted":"0","num_feature":"12800","num_nodes":"17","size_leaf_vector":"1"}},{"base_weights":[3.4628997E-3,-3.1397712E-1,2.3709579E-1,1.8526675E-1,-6.349439E-1,6.121922E-1,-1.5806672E-1,5.4080363E-2,-3.4164365E-2,-7.9497285E-2,-6.831703E-3,7.778207E-2,-2.7859937E-3,-3.8954148E-1,4.5830924E-2,1.1199833E-3,-6.92774E-2],"categories":[],"categories_nodes":[],"categories_segments":[],"categories_sizes":[],"default_left":[0,0,0,0,0,0,0,0,0,0,0,0,0,0,0,0,0],"id":41,"left_children":[1,3,5,7,9,11,13,-1,-1,-1,-1,-1,-1,15,-1,-1,-1],"loss_changes":[1.476857E0,1.4712075E0,1.7957704E0,9.4903207E-1,4.3239284E-1,6.668222E-1,1.0883266E0,0E0,0E0,0E0,0E0,0E0,0E0,6.367736E-1,0E0,0E0,0E0],"parents":[2147483647,0,0,1,1,2,2,3,3,4,4,5,5,6,6,13,13],"right_children":[2,4,6,8,10,12,14,-1,-1,-1,-1,-1,-1,16,-1,-1,-1],"split_conditions":[9.2661574E-2,-4.313639E-1,7.975618E-1,-3.0108544E-1,1.8807772E-1,4.2861542E-1,1.094589E0,5.4080363E-2,-3.4164365E-2,-7.9497285E-2,-6.831703E-3,7.778207E-2,-2.7859937E-3,4.7587976E-1,4.5830924E-2,1.1199833E-3,-6.92774E-2],"split_indices":[82,9122,4666,4998,2849,2639,667,0,0,0,0,0,0,728,0,0,0],"split_type":[0,0,0,0,0,0,0,0,0,0,0,0,0,0,0,0,0],"sum_hessian":[1.7909527E1,7.4471273E0,1.0462399E1,3.079673E0,4.3674545E0,5.085716E0,5.3766828E0,1.8231328E0,1.2565402E0,3.0913825E0,1.276072E0,3.8692188E0,1.2164972E0,4.176316E0,1.2003669E0,2.2137578E0,1.9625582E0],"tree_param":{"num_deleted":"0","num_feature":"12800","num_nodes":"17","size_leaf_vector":"1"}},{"base_weights":[2.4601484E-3,1.3302131E-1,-5.589774E-1,-7.773227E-2,5.1173323E-1,-1.6592756E-2,-6.467738E-2,2.1926117E-1,-5.219611E-1,7.6268375E-2,-1.843731E-2,-3.1557597E-2,5.6494772E-2,-7.029947E-2,2.9936153E-3],"categories":[],"categories_nodes":[],"categories_segments":[],"categories_sizes":[],"default_left":[0,0,0,0,0,0,0,0,0,0,0,0,0,0,0],"id":42,"left_children":[1,3,5,7,9,-1,-1,11,13,-1,-1,-1,-1,-1,-1],"loss_changes":[1.4118311E0,1.2857958E0,1.8112183E-2,1.5522386E0,1.1386898E0,0E0,0E0,1.5160285E0,4.868729E-1,0E0,0E0,0E0,0E0,0E0,0E0],"parents":[2147483647,0,0,1,1,2,2,3,3,4,4,7,7,8,8],"right_children":[2,4,6,8,10,-1,-1,12,14,-1,-1,-1,-1,-1,-1],"split_conditions":[9.223621E-1,5.4090893E-1,1.1711326E0,2.4234013E-1,1.4552487E0,-1.6592756E-2,-6.467738E-2,-4.3690547E-1,4.5366514E-1,7.6268375E-2,-1.843731E-2,-3.1557597E-2,5.6494772E-2,-7.029947E-2,2.9936153E-3],"split_indices":[931,405,933,622,4398,0,0,5538,1962,0,0,0,0,0,0],"split_type":[0,0,0,0,0,0,0,0,0,0,0,0,0,0,0],"sum_hessian":[1.7246109E1,1.4611342E1,2.6347675E0,9.897898E0,4.7134447E0,1.0087361E0,1.6260314E0,6.2355103E0,3.6623874E0,3.3941796E0,1.3192649E0,2.4822075E0,3.7533028E0,2.5516245E0,1.110763E0],"tree_param":{"num_deleted":"0","num_feature":"12800","num_nodes":"15","size_leaf_vector":"1"}},{"base_weights":[-1.2615435E-3,-3.6859185E-1,1.9447672E-1,-6.695348E-1,2.0122178E-1,6.76698E-2,-8.12862E-2,-1.921634E-2,-7.5165756E-2,-1.589214E-2,4.6118986E-2,-4.7824955E-1,1.8603975E-1,-6.512197E-2,-2.2276721E-3,5.137523E-2,-3.33874E-2],"categories":[],"categories_nodes":[],"categories_segments":[],"categories_sizes":[],"default_left":[0,0,0,0,0,0,0,0,0,0,0,0,0,0,0,0,0],"id":43,"left_children":[1,3,5,7,9,-1,11,-1,-1,-1,-1,13,15,-1,-1,-1,-1],"loss_changes":[1.3411858E0,1.2464787E0,1.6737746E0,3.093934E-2,3.550677E-1,0E0,1.0055385E0,0E0,0E0,0E0,0E0,2.8171682E-1,1.1735995E0,0E0,0E0,0E0,0E0],"parents":[2147483647,0,0,1,1,2,2,3,3,4,4,6,6,11,11,12,12],"right_children":[2,4,6,8,10,-1,12,-1,-1,-1,-1,14,16,-1,-1,-1,-1],"split_conditions":[-1.02674596E-1,1.3200244E-2,4.1965164E-2,-1.0032133E0,2.0504406E-1,6.76698E-2,5.3930986E-1,-1.921634E-2,-7.5165756E-2,-1.589214E-2,4.6118986E-2,2.4999134E-1,1.2321326E0,-6.512197E-2,-2.2276721E-3,5.137523E-2,-3.33874E-2],"split_indices":[2589,1433,239,11184,2087,0,33,0,0,0,0,2205,3520,0,0,0,0],"split_type":[0,0,0,0,0,0,0,0,0,0,0,0,0,0,0,0,0],"sum_hessian":[1.6656368E1,5.483231E0,1.1173137E1,3.4736443E0,2.0095866E0,3.53596E0,7.6371765E0,1.0001024E0,2.473542E0,1.0054244E0,1.0041622E0,2.7558653E0,4.881311E0,1.6875185E0,1.0683467E0,3.0013487E0,1.8799623E0],"tree_param":{"num_deleted":"0","num_feature":"12800","num_nodes":"17","size_leaf_vector":"1"}},{"base_weights":[-3.8894555E-3,-1.7067973E-1,4.182098E-1,7.961704E-2,-5.492259E-1,7.086136E-2,-1.2573364E-2,-4.869231E-1,3.760668E-1,-7.3284E-2,-2.6414886E-3,-6.1411716E-2,-8.988743E-3,6.276842E-2,-1.2200761E-2],"categories":[],"categories_nodes":[],"categories_segments":[],"categories_sizes":[],"default_left":[0,0,0,0,0,0,0,0,0,0,0,0,0,0,0],"id":44,"left_children":[1,3,5,7,9,-1,-1,11,13,-1,-1,-1,-1,-1,-1],"loss_changes":[1.2745874E0,1.2716887E0,8.99504E-1,1.6400967E0,4.879887E-1,0E0,0E0,1.1729741E-1,8.6102045E-1,0E0,0E0,0E0,0E0,0E0,0E0],"parents":[2147483647,0,0,1,1,2,2,3,3,4,4,7,7,8,8],"right_children":[2,4,6,8,10,-1,-1,12,14,-1,-1,-1,-1,-1,-1],"split_conditions":[7.8745544E-1,3.666074E-1,7.859043E-1,-7.1694386E-1,8.865503E-1,7.086136E-2,-1.2573364E-2,-9.3331504E-1,5.938904E-1,-7.3284E-2,-2.6414886E-3,-6.1411716E-2,-8.988743E-3,6.276842E-2,-1.2200761E-2],"split_indices":[666,5005,816,5666,2913,0,0,6783,10276,0,0,0,0,0,0],"split_type":[0,0,0,0,0,0,0,0,0,0,0,0,0,0,0],"sum_hessian":[1.6090517E1,1.1960162E1,4.1303544E0,7.675053E0,4.2851095E0,2.4953744E0,1.6349797E0,2.4157805E0,5.2592726E0,2.874011E0,1.4110986E0,1.4155428E0,1.0002378E0,3.3212302E0,1.938042E0],"tree_param":{"num_deleted":"0","num_feature":"12800","num_nodes":"15","size_leaf_vector":"1"}},{"base_weights":[-5.7903244E-3,2.070227E-1,-3.3177474E-1,-1.1697767E-1,5.1845974E-1,-5.3076845E-1,2.9399304E-2,-3.4883633E-1,4.5690976E-2,7.465051E-2,-1.751999E-2,-6.7333245E-1,1.7383745E-3,2.802356E-2,-5.8646996E-2,-1.8894738E-2,-7.5858116E-2],"categories":[],"categories_nodes":[],"categories_segments":[],"categories_sizes":[],"default_left":[0,0,0,0,0,0,0,0,0,0,0,0,0,0,0,0,0],"id":45,"left_children":[1,3,5,7,9,11,-1,13,-1,-1,-1,15,-1,-1,-1,-1,-1],"loss_changes":[1.2179307E0,1.134141E0,1.0186732E0,9.6174693E-1,1.0179801E0,4.5030248E-1,0E0,8.911504E-1,0E0,0E0,0E0,4.163003E-2,0E0,0E0,0E0,0E0,0E0],"parents":[2147483647,0,0,1,1,2,2,3,3,4,4,5,5,7,7,11,11],"right_children":[2,4,6,8,10,12,-1,14,-1,-1,-1,16,-1,-1,-1,-1,-1],"split_conditions":[3.9941064E-1,2.2304557E-1,1.3330653E0,4.393122E-1,9.6000683E-1,5.649247E-1,2.9399304E-2,-8.3553296E-1,4.5690976E-2,7.465051E-2,-1.751999E-2,-9.020773E-2,1.7383745E-3,2.802356E-2,-5.8646996E-2,-1.8894738E-2,-7.5858116E-2],"split_indices":[906,2089,2839,2082,4238,669,0,6157,0,0,0,874,0,0,0,0,0],"split_type":[0,0,0,0,0,0,0,0,0,0,0,0,0,0,0,0,0],"sum_hessian":[1.55660095E1,9.638573E0,5.927437E0,5.030028E0,4.6085443E0,4.612483E0,1.314954E0,3.8619123E0,1.1681155E0,3.4109786E0,1.197566E0,3.4792325E0,1.1332504E0,1.0097064E0,2.852206E0,1.0020404E0,2.4771922E0],"tree_param":{"num_deleted":"0","num_feature":"12800","num_nodes":"17","size_leaf_vector":"1"}},{"base_weights":[-4.872391E-3,1.2056753E-1,-5.3014304E-2,2.3022412E-1,-5.1685926E-2,-6.691487E-2,5.4820514E-1,3.417509E-2,-4.9937364E-2,7.02057E-2,-1.0063151E-2],"categories":[],"categories_nodes":[],"categories_segments":[],"categories_sizes":[],"default_left":[0,0,0,0,0,0,0,0,0,0,0],"id":46,"left_children":[1,3,-1,5,-1,7,9,-1,-1,-1,-1],"loss_changes":[1.1196288E0,1.0799775E0,0E0,1.2103916E0,0E0,1.4630568E0,6.805227E-1,0E0,0E0,0E0,0E0],"parents":[2147483647,0,0,1,1,3,3,5,5,6,6],"right_children":[2,4,-1,6,-1,8,10,-1,-1,-1,-1],"split_conditions":[9.223621E-1,1.3913517E0,-5.3014304E-2,3.1160367E-1,-5.1685926E-2,6.7111626E-2,1.0206397E0,3.417509E-2,-4.9937364E-2,7.02057E-2,-1.0063151E-2],"split_indices":[931,1186,0,1169,0,1135,1459,0,0,0,0],"split_type":[0,0,0,0,0,0,0,0,0,0,0],"sum_hessian":[1.5022345E1,1.2748371E1,2.2739735E0,1.1422227E1,1.3261442E0,6.3127804E0,5.1094465E0,3.3535166E0,2.9592638E0,4.0638127E0,1.0456339E0],"tree_param":{"num_deleted":"0","num_feature":"12800","num_nodes":"11","size_leaf_vector":"1"}},{"base_weights":[-8.211339E-3,-3.8099074E-1,1.6893707E-1,-6.8290934E-2,1.8156175E-2,5.9544486E-1,-1.18490264E-1,4.648493E-3,7.369294E-2,-3.8926557E-1,2.8310013E-1,-5.747648E-2,1.3051884E-2,6.202146E-2,-2.5887867E-2],"categories":[],"categories_nodes":[],"categories_segments":[],"categories_sizes":[],"default_left":[0,0,0,0,0,0,0,0,0,0,0,0,0,0,0],"id":47,"left_children":[1,3,5,-1,-1,7,9,-1,-1,11,13,-1,-1,-1,-1],"loss_changes":[1.092749E0,1.0281894E0,1.4495857E0,0E0,0E0,3.3038747E-1,9.316626E-1,0E0,0E0,5.50664E-1,8.2219005E-1,0E0,0E0,0E0,0E0],"parents":[2147483647,0,0,1,1,2,2,5,5,6,6,9,9,10,10],"right_children":[2,4,6,-1,-1,8,10,-1,-1,12,14,-1,-1,-1,-1],"split_conditions":[-1.9830203E-1,-4.6884692E-1,3.822709E-1,-6.8290934E-2,1.8156175E-2,-3.7602033E-2,7.7213085E-1,4.648493E-3,7.369294E-2,7.343285E-1,9.667633E-1,-5.747648E-2,1.3051884E-2,6.202146E-2,-2.5887867E-2],"split_indices":[2845,6696,8483,0,0,3101,3076,0,0,1578,1753,0,0,0,0],"split_type":[0,0,0,0,0,0,0,0,0,0,0,0,0,0,0],"sum_hessian":[1.4572804E1,4.323671E0,1.0249133E1,2.6743925E0,1.6492783E0,3.6948225E0,6.554311E0,1.0293797E0,2.665443E0,3.9330876E0,2.6212232E0,2.8206768E0,1.1124107E0,1.5270413E0,1.094182E0],"tree_param":{"num_deleted":"0","num_feature":"12800","num_nodes":"15","size_leaf_vector":"1"}},{"base_weights":[-6.250439E-3,-1.3216041E-1,5.01988E-2,3.8417786E-1,-2.6725915E-1,3.068296E-3,5.4096635E-2,-5.518095E-1,6.1190914E-2,-6.879665E-2,3.374061E-3,5.7803303E-2,-2.72081E-2],"categories":[],"categories_nodes":[],"categories_segments":[],"categories_sizes":[],"default_left":[0,0,0,0,0,0,0,0,0,0,0,0,0],"id":48,"left_children":[1,3,-1,5,7,-1,-1,9,11,-1,-1,-1,-1],"loss_changes":[1.0308521E0,1.0005319E0,0E0,1.5408391E-1,1.0423635E0,0E0,0E0,4.9217212E-1,1.1751949E0,0E0,0E0,0E0,0E0],"parents":[2147483647,0,0,1,1,3,3,4,4,7,7,8,8],"right_children":[2,4,-1,6,8,-1,-1,10,12,-1,-1,-1,-1],"split_conditions":[9.8863685E-1,-8.0860364E-1,5.01988E-2,-3.6900267E-1,2.8970322E-1,3.068296E-3,5.4096635E-2,3.8904682E-1,7.975618E-1,-6.879665E-2,3.374061E-3,5.7803303E-2,-2.72081E-2],"split_indices":[882,6029,0,3966,33,0,0,2804,4666,0,0,0,0],"split_type":[0,0,0,0,0,0,0,0,0,0,0,0,0],"sum_hessian":[1.4072272E1,1.1871271E1,2.2010014E0,2.0795786E0,9.791693E0,1.0063534E0,1.0732253E0,4.882089E0,4.9096036E0,3.8191276E0,1.0629616E0,1.636806E0,3.2727973E0],"tree_param":{"num_deleted":"0","num_feature":"12800","num_nodes":"13","size_leaf_vector":"1"}},{"base_weights":[-9.426658E-4,2.0293477E-1,-3.082851E-1,-1.4423229E-1,4.5355174E-1,-5.077423E-1,2.756822E-2,3.0549634E-2,-4.8767272E-2,6.732595E-2,-1.7796626E-2,-1.6499611E-3,-6.3135035E-2],"categories":[],"categories_nodes":[],"categories_segments":[],"categories_sizes":[],"default_left":[0,0,0,0,0,0,0,0,0,0,0,0,0],"id":49,"left_children":[1,3,5,7,9,11,-1,-1,-1,-1,-1,-1,-1],"loss_changes":[9.822689E-1,8.856381E-1,8.680132E-1,8.7662053E-1,9.129338E-1,2.938615E-1,0E0,0E0,0E0,0E0,0E0,0E0,0E0],"parents":[2147483647,0,0,1,1,2,2,3,3,4,4,5,5],"right_children":[2,4,6,8,10,12,-1,-1,-1,-1,-1,-1,-1],"split_conditions":[3.9941064E-1,1.0749942E-1,1.2483044E0,-2.8092438E-1,6.7082477E-1,-7.398348E-1,2.756822E-2,3.0549634E-2,-4.8767272E-2,6.732595E-2,-1.7796626E-2,-1.6499611E-3,-6.3135035E-2],"split_indices":[906,82,3089,9247,876,11738,0,0,0,0,0,0,0],"split_type":[0,0,0,0,0,0,0,0,0,0,0,0,0],"sum_hessian":[1.3677697E1,8.427185E0,5.2505126E0,3.711006E0,4.716179E0,4.011047E0,1.2394656E0,1.6546957E0,2.0563102E0,3.4498606E0,1.2663182E0,1.0342436E0,2.9768035E0],"tree_param":{"num_deleted":"0","num_feature":"12800","num_nodes":"13","size_leaf_vector":"1"}},{"base_weights":[-1.2245835E-3,-4.0101147E-1,1.5822127E-1,-6.65974E-2,1.9753855E-2,6.044484E-1,-8.628657E-2,1.7311877E-2,6.9246344E-2,-4.3337426E-1,2.4963747E-1,-6.1545905E-2,4.3491083E-3,5.104311E-2,-3.2807045E-2],"categories":[],"categories_nodes":[],"categories_segments":[],"categories_sizes":[],"default_left":[0,0,0,0,0,0,0,0,0,0,0,0,0,0,0],"id":50,"left_children":[1,3,5,-1,-1,7,9,-1,-1,11,13,-1,-1,-1,-1],"loss_changes":[9.74168E-1,8.224492E-1,1.2447581E0,0E0,0E0,3.1754613E-2,1.0335423E0,0E0,0E0,3.9743352E-1,8.706912E-1,0E0,0E0,0E0,0E0],"parents":[2147483647,0,0,1,1,2,2,5,5,6,6,9,9,10,10],"right_children":[2,4,6,-1,-1,8,10,-1,-1,12,14,-1,-1,-1,-1],"split_conditions":[-3.319815E-1,-4.3580884E-1,-8.357885E-2,-6.65974E-2,1.9753855E-2,-1.4354438E-1,5.401987E-1,1.7311877E-2,6.9246344E-2,4.4524544E-1,9.4374174E-1,-6.1545905E-2,4.3491083E-3,5.104311E-2,-3.2807045E-2],"split_indices":[2461,5671,367,0,0,2204,1169,0,0,1380,800,0,0,0,0],"split_type":[0,0,0,0,0,0,0,0,0,0,0,0,0,0,0],"sum_hessian":[1.3287059E1,3.3563857E0,9.930673E0,2.2484221E0,1.1079637E0,2.9941828E0,6.93649E0,1.0102477E0,1.9839352E0,3.2688801E0,3.66761E0,2.1552799E0,1.1136003E0,2.6071317E0,1.060478E0],"tree_param":{"num_deleted":"0","num_feature":"12800","num_nodes":"15","size_leaf_vector":"1"}},{"base_weights":[-1.1479371E-3,-1.6074727E-1,3.8248146E-1,8.1478864E-2,-5.0259197E-1,6.499972E-2,-1.1132694E-2,-1.9211964E-1,5.619442E-2,-6.693628E-2,-7.033603E-4,-4.700626E-2,3.1104052E-2],"categories":[],"categories_nodes":[],"categories_segments":[],"categories_sizes":[],"default_left":[0,0,0,0,0,0,0,0,0,0,0,0,0],"id":51,"left_children":[1,3,5,7,9,-1,-1,11,-1,-1,-1,-1,-1],"loss_changes":[9.0919507E-1,9.088781E-1,6.48808E-1,1.0275179E0,3.6607683E-1,0E0,0E0,8.737588E-1,0E0,0E0,0E0,0E0,0E0],"parents":[2147483647,0,0,1,1,2,2,3,3,4,4,7,7],"right_children":[2,4,6,8,10,-1,-1,12,-1,-1,-1,-1,-1],"split_conditions":[7.8745544E-1,2.901065E-1,7.859043E-1,6.184052E-1,7.4433786E-1,6.499972E-2,-1.1132694E-2,1.6775885E-1,5.619442E-2,-6.693628E-2,-7.033603E-4,-4.700626E-2,3.1104052E-2],"split_indices":[666,5004,816,2595,1989,0,0,1436,0,0,0,0,0],"split_type":[0,0,0,0,0,0,0,0,0,0,0,0,0],"sum_hessian":[1.28454E1,9.481743E0,3.3636572E0,5.995248E0,3.4864953E0,1.9765738E0,1.3870834E0,4.2023687E0,1.7928789E0,2.346201E0,1.1402942E0,2.7493966E0,1.4529723E0],"tree_param":{"num_deleted":"0","num_feature":"12800","num_nodes":"13","size_leaf_vector":"1"}},{"base_weights":[9.286937E-4,-2.0695364E-1,2.8232697E-1,2.2925907E-1,-4.290688E-1,5.960699E-1,-2.3323467E-1,-2.0946728E-2,4.938447E-2,-6.142721E-1,2.146684E-2,6.926475E-2,1.597138E-2,-4.750867E-2,1.2463895E-2,-7.24023E-2,-1.21673E-2],"categories":[],"categories_nodes":[],"categories_segments":[],"categories_sizes":[],"default_left":[0,0,0,0,0,0,0,0,0,0,0,0,0,0,0,0,0],"id":52,"left_children":[1,3,5,7,9,11,13,-1,-1,15,-1,-1,-1,-1,-1,-1,-1],"loss_changes":[8.4536034E-1,9.0389E-1,1.1319531E0,5.0470996E-1,8.30155E-1,6.2049508E-2,3.2242778E-1,0E0,0E0,1.7181027E-1,0E0,0E0,0E0,0E0,0E0,0E0,0E0],"parents":[2147483647,0,0,1,1,2,2,3,3,4,4,5,5,6,6,9,9],"right_children":[2,4,6,8,10,12,14,-1,-1,16,-1,-1,-1,-1,-1,-1,-1],"split_conditions":[5.009926E-1,-2.8266013E-1,9.5637786E-1,-5.152869E-1,7.210524E-1,6.082177E-1,8.872502E-1,-2.0946728E-2,4.938447E-2,2.9542446E-1,2.146684E-2,6.926475E-2,1.597138E-2,-4.750867E-2,1.2463895E-2,-7.24023E-2,-1.21673E-2],"split_indices":[1283,729,475,4010,2467,3725,1977,0,0,632,0,0,0,0,0,0,0],"split_type":[0,0,0,0,0,0,0,0,0,0,0,0,0,0,0,0,0],"sum_hessian":[1.2452347E1,7.313826E0,5.1385202E0,2.4567814E0,4.857045E0,3.0974336E0,2.0410867E0,1.0026097E0,1.4541717E0,3.807421E0,1.049624E0,2.0552137E0,1.04222E0,1.022531E0,1.0185556E0,2.7294903E0,1.0779307E0],"tree_param":{"num_deleted":"0","num_feature":"12800","num_nodes":"17","size_leaf_vector":"1"}},{"base_weights":[1.9694732E-3,1.758924E-1,-3.327989E-1,-2.4631558E-1,4.5179302E-1,-5.3118575E-1,1.4558206E-2,-4.774501E-1,2.3590392E-2,5.917588E-1,-8.332336E-3,-1.5605775E-2,-6.172025E-2,-1.3619832E-2,-5.7430126E-2,1.2324158E-2,7.386042E-2],"categories":[],"categories_nodes":[],"categories_segments":[],"categories_sizes":[],"default_left":[0,0,0,0,0,0,0,0,0,0,0,0,0,0,0,0,0],"id":53,"left_children":[1,3,5,7,9,11,-1,13,-1,15,-1,-1,-1,-1,-1,-1,-1],"loss_changes":[8.1888306E-1,1.1885972E0,5.3388673E-1,5.921464E-1,4.9465907E-1,2.0346403E-2,0E0,2.883023E-2,0E0,2.4173784E-1,0E0,0E0,0E0,0E0,0E0,0E0,0E0],"parents":[2147483647,0,0,1,1,2,2,3,3,4,4,5,5,7,7,9,9],"right_children":[2,4,6,8,10,12,-1,14,-1,16,-1,-1,-1,-1,-1,-1,-1],"split_conditions":[6.840695E-1,-2.439418E-2,1.0971016E0,-1.2174945E-1,9.9068713E-1,1.4388101E-1,1.4558206E-2,-2.780917E-1,2.3590392E-2,2.5807735E-1,-8.332336E-3,-1.5605775E-2,-6.172025E-2,-1.3619832E-2,-5.7430126E-2,1.2324158E-2,7.386042E-2],"split_indices":[778,1691,675,1701,4877,602,0,869,0,1306,0,0,0,0,0,0,0],"split_type":[0,0,0,0,0,0,0,0,0,0,0,0,0,0,0,0,0],"sum_hessian":[1.2059008E1,8.248323E0,3.8106844E0,3.3022118E0,4.946111E0,2.6156003E0,1.1950841E0,2.238945E0,1.0632669E0,3.8367226E0,1.1093888E0,1.012827E0,1.6027732E0,1.0269134E0,1.2120315E0,1.3544732E0,2.4822493E0],"tree_param":{"num_deleted":"0","num_feature":"12800","num_nodes":"17","size_leaf_vector":"1"}},{"base_weights":[-5.7571335E-4,1.9396459E-1,-2.8818282E-1,-2.1277528E-2,5.6312915E-2,-4.8323968E-1,2.6277874E-2,2.8189757E-1,-3.7432414E-1,-6.0640316E-2,-3.3787892E-3,-1.9292323E-2,5.754285E-2,-5.4195154E-2,-6.0680974E-4],"categories":[],"categories_nodes":[],"categories_segments":[],"categories_sizes":[],"default_left":[0,0,0,0,0,0,0,0,0,0,0,0,0,0,0],"id":54,"left_children":[1,3,5,7,-1,9,-1,11,13,-1,-1,-1,-1,-1,-1],"loss_changes":[7.6778406E-1,6.625471E-1,7.219332E-1,7.622307E-1,0E0,2.2533488E-1,0E0,6.505743E-1,1.9820803E-1,0E0,0E0,0E0,0E0,0E0,0E0],"parents":[2147483647,0,0,1,1,2,2,3,3,5,5,7,7,8,8],"right_children":[2,4,6,8,-1,10,-1,12,14,-1,-1,-1,-1,-1,-1],"split_conditions":[3.9941064E-1,5.18427E-1,1.3330653E0,1.6396357E-1,5.6312915E-2,5.537592E-1,2.6277874E-2,-1.6191229E-1,2.2304557E-1,-6.0640316E-2,-3.3787892E-3,-1.9292323E-2,5.754285E-2,-5.4195154E-2,-6.0680974E-4],"split_indices":[906,405,2839,624,0,669,0,1436,2089,0,0,0,0,0,0],"split_type":[0,0,0,0,0,0,0,0,0,0,0,0,0,0,0],"sum_hessian":[1.1723359E1,7.1873536E0,4.5360055E0,5.1354704E0,2.0518832E0,3.4407816E0,1.0952238E0,2.8713E0,2.2641704E0,2.4266102E0,1.0141712E0,1.2278531E0,1.6434469E0,1.2317955E0,1.0323747E0],"tree_param":{"num_deleted":"0","num_feature":"12800","num_nodes":"15","size_leaf_vector":"1"}},{"base_weights":[-3.8252375E-4,1.7241265E-1,-3.347294E-1,-3.4927142E-1,3.8421205E-1,-5.884055E-2,1.7806288E-2,1.7647503E-3,-5.358085E-2,7.6555256E-3,6.1008938E-2,4.2844098E-2,-4.0989857E-2],"categories":[],"categories_nodes":[],"categories_segments":[],"categories_sizes":[],"default_left":[0,0,0,0,0,0,0,0,0,0,0,0,0],"id":55,"left_children":[1,3,5,7,9,-1,-1,-1,-1,11,-1,-1,-1],"loss_changes":[7.730857E-1,1.109118E0,6.978141E-1,2.1969241E-1,5.696064E-1,0E0,0E0,0E0,0E0,7.983412E-1,0E0,0E0,0E0],"parents":[2147483647,0,0,1,1,2,2,3,3,4,4,9,9],"right_children":[2,4,6,8,10,-1,-1,-1,-1,12,-1,-1,-1],"split_conditions":[7.4980116E-1,-8.0801165E-1,9.786311E-1,-9.367338E-1,1.2632021E-1,-5.884055E-2,1.7806288E-2,1.7647503E-3,-5.358085E-2,1.5624379E-1,6.1008938E-2,4.2844098E-2,-4.0989857E-2],"split_indices":[5006,5533,1906,12061,1436,0,0,0,0,8281,0,0,0],"split_type":[0,0,0,0,0,0,0,0,0,0,0,0,0],"sum_hessian":[1.1382386E1,7.8234477E0,3.558938E0,2.0716615E0,5.751786E0,2.282394E0,1.2765442E0,1.0033883E0,1.0682732E0,2.5442312E0,3.207555E0,1.254226E0,1.2900052E0],"tree_param":{"num_deleted":"0","num_feature":"12800","num_nodes":"13","size_leaf_vector":"1"}},{"base_weights":[-2.8188876E-3,3.5395336E-1,-1.5460747E-1,5.8965694E-2,-1.5926719E-2,-5.6921788E-2,8.841474E-2,3.2461488E-1,-2.867541E-1,-3.228546E-3,5.252867E-2,3.1261202E-3,-4.6299513E-2],"categories":[],"categories_nodes":[],"categories_segments":[],"categories_sizes":[],"default_left":[0,0,0,0,0,0,0,0,0,0,0,0,0],"id":56,"left_children":[1,3,5,-1,-1,-1,7,9,11,-1,-1,-1,-1],"loss_changes":[7.0619833E-1,5.6503236E-1,9.708124E-1,0E0,0E0,0E0,6.8016666E-1,3.4172273E-1,1.8769053E-1,0E0,0E0,0E0,0E0],"parents":[2147483647,0,0,1,1,2,2,6,6,7,7,8,8],"right_children":[2,4,6,-1,-1,-1,8,10,12,-1,-1,-1,-1],"split_conditions":[-4.856359E-1,-1.6342312E-1,1.5557235E-1,5.8965694E-2,-1.5926719E-2,-5.6921788E-2,6.840695E-1,4.3520084E-1,8.7057173E-1,-3.228546E-3,5.252867E-2,3.1261202E-3,-4.6299513E-2],"split_indices":[8995,5720,35,0,0,0,778,1650,803,0,0,0,0],"split_type":[0,0,0,0,0,0,0,0,0,0,0,0,0],"sum_hessian":[1.1030045E1,2.8945801E0,8.135465E0,1.8815279E0,1.0130523E0,2.5103726E0,5.6250916E0,3.5345483E0,2.0905435E0,1.5740932E0,1.9604552E0,1.0387713E0,1.0517721E0],"tree_param":{"num_deleted":"0","num_feature":"12800","num_nodes":"13","size_leaf_vector":"1"}},{"base_weights":[-3.2003669E-3,1.6358225E-1,-3.2081407E-1,-3.329168E-2,3.6645824E-1,-5.468973E-2,2.1070048E-2,5.0668386E-3,5.8180477E-2,3.85289E-2,-4.1088834E-2],"categories":[],"categories_nodes":[],"categories_segments":[],"categories_sizes":[],"default_left":[0,0,0,0,0,0,0,0,0,0,0],"id":57,"left_children":[1,3,5,-1,7,-1,-1,9,-1,-1,-1],"loss_changes":[6.740808E-1,9.6372545E-1,6.4131904E-1,0E0,4.957825E-1,0E0,0E0,6.962926E-1,0E0,0E0,0E0],"parents":[2147483647,0,0,1,1,2,2,4,4,7,7],"right_children":[2,4,6,-1,8,-1,-1,10,-1,-1,-1],"split_conditions":[7.4980116E-1,-8.0801165E-1,1.0313563E0,-3.329168E-2,1.2632021E-1,-5.468973E-2,2.1070048E-2,3.5340208E-1,5.8180477E-2,3.85289E-2,-4.1088834E-2],"split_indices":[5006,5533,2202,0,1436,0,0,5591,0,0,0],"split_type":[0,0,0,0,0,0,0,0,0,0,0],"sum_hessian":[1.0734427E1,7.3564405E0,3.377987E0,1.9480312E0,5.408409E0,2.3496194E0,1.0283675E0,2.4016027E0,3.0068064E0,1.293211E0,1.1083919E0],"tree_param":{"num_deleted":"0","num_feature":"12800","num_nodes":"11","size_leaf_vector":"1"}},{"base_weights":[-3.8648008E-3,-1.0589856E-1,5.054568E-2,2.956071E-1,-2.8683332E-1,-1.3257015E-2,5.450762E-2,-5.28316E-1,1.9312872E-2,-6.7355774E-2,-7.1865083E-3,4.0891398E-2,-3.460705E-2],"categories":[],"categories_nodes":[],"categories_segments":[],"categories_sizes":[],"default_left":[0,0,0,0,0,0,0,0,0,0,0,0,0],"id":58,"left_children":[1,3,-1,5,7,-1,-1,9,11,-1,-1,-1,-1],"loss_changes":[6.479791E-1,8.3715004E-1,0E0,4.6851996E-1,5.7552195E-1,0E0,0E0,2.37337E-1,7.5885296E-1,0E0,0E0,0E0,0E0],"parents":[2147483647,0,0,1,1,3,3,4,4,7,7,8,8],"right_children":[2,4,-1,6,8,-1,-1,10,12,-1,-1,-1,-1],"split_conditions":[1.2458241E0,-3.9318436E-1,5.054568E-2,-8.480074E-1,4.2715055E-1,-1.3257015E-2,5.450762E-2,3.0835414E-1,8.3706695E-1,-6.7355774E-2,-7.1865083E-3,4.0891398E-2,-3.460705E-2],"split_indices":[1266,9122,0,4772,35,0,0,2972,4878,0,0,0,0],"split_type":[0,0,0,0,0,0,0,0,0,0,0,0,0],"sum_hessian":[1.0438808E1,9.356479E0,1.0823293E0,2.7097018E0,6.6467767E0,1.1700585E0,1.5396434E0,3.3101168E0,3.3366601E0,2.1502657E0,1.159851E0,1.5571572E0,1.779503E0],"tree_param":{"num_deleted":"0","num_feature":"12800","num_nodes":"13","size_leaf_vector":"1"}},{"base_weights":[-1.5467793E-3,1.643071E-1,-3.1103683E-1,-1.8569528E-1,4.592632E-1,-4.9121127E-2,1.1828604E-2,-4.1045907E-1,2.6212228E-2,6.5864556E-2,-6.883935E-3,-5.1744217E-3,-5.4867804E-2],"categories":[],"categories_nodes":[],"categories_segments":[],"categories_sizes":[],"default_left":[0,0,0,0,0,0,0,0,0,0,0,0,0],"id":59,"left_children":[1,3,5,7,9,-1,-1,11,-1,-1,-1,-1,-1],"loss_changes":[6.229387E-1,9.016311E-1,3.8551244E-1,5.4326266E-1,5.275035E-1,0E0,0E0,1.3382345E-1,0E0,0E0,0E0,0E0,0E0],"parents":[2147483647,0,0,1,1,2,2,3,3,4,4,7,7],"right_children":[2,4,6,8,10,-1,-1,12,-1,-1,-1,-1,-1],"split_conditions":[6.840695E-1,1.3356367E-1,1.0971016E0,2.2738136E-1,7.714576E-1,-4.9121127E-2,1.1828604E-2,-3.0000642E-1,2.6212228E-2,6.5864556E-2,-6.883935E-3,-5.1744217E-3,-5.4867804E-2],"split_indices":[778,1701,675,665,1641,0,0,8921,0,0,0,0,0],"split_type":[0,0,0,0,0,0,0,0,0,0,0,0,0],"sum_hessian":[1.0140302E1,6.907641E0,3.2326603E0,3.3284495E0,3.5791917E0,2.1755085E0,1.0571517E0,2.2716904E0,1.0567591E0,2.4187958E0,1.1603959E0,1.0141268E0,1.2575636E0],"tree_param":{"num_deleted":"0","num_feature":"12800","num_nodes":"13","size_leaf_vector":"1"}},{"base_weights":[-2.4344684E-3,-1.1987877E-1,4.243819E-2,3.3025768E-2,-2.4430051E-1,-4.3018934E-1,1.1982565E-1,-5.8992695E-2,1.2298495E-2,5.0311573E-2,-3.157353E-2],"categories":[],"categories_nodes":[],"categories_segments":[],"categories_sizes":[],"default_left":[0,0,0,0,0,0,0,0,0,0,0],"id":60,"left_children":[1,3,-1,-1,5,7,9,-1,-1,-1,-1],"loss_changes":[5.958591E-1,6.018665E-1,0E0,0E0,5.8393085E-1,5.5191696E-1,7.3321366E-1,0E0,0E0,0E0,0E0],"parents":[2147483647,0,0,1,1,4,4,5,5,6,6],"right_children":[2,4,-1,-1,6,8,10,-1,-1,-1,-1],"split_conditions":[9.8863685E-1,-8.0860364E-1,4.243819E-2,3.3025768E-2,6.3858086E-1,6.6833514E-1,1.3952267E0,-5.8992695E-2,1.2298495E-2,5.0311573E-2,-3.157353E-2],"split_indices":[882,6029,0,0,81,2595,6735,0,0,0,0],"split_type":[0,0,0,0,0,0,0,0,0,0,0],"sum_hessian":[9.872046E0,8.305742E0,1.5663046E0,1.4403745E0,6.8653674E0,4.424964E0,2.4404032E0,3.3819377E0,1.0430264E0,1.215593E0,1.2248102E0],"tree_param":{"num_deleted":"0","num_feature":"12800","num_nodes":"11","size_leaf_vector":"1"}},{"base_weights":[2.0732123E-3,1.8738644E-1,-2.6562566E-1,-3.6661867E-2,4.9770884E-2,-4.331327E-1,1.7830275E-2,3.1666722E-2,-3.2355687E-1,-5.5889554E-2,-4.599602E-3,-4.839913E-2,1.2491286E-3],"categories":[],"categories_nodes":[],"categories_segments":[],"categories_sizes":[],"default_left":[0,0,0,0,0,0,0,0,0,0,0,0,0],"id":61,"left_children":[1,3,5,7,-1,9,-1,-1,11,-1,-1,-1,-1],"loss_changes":[5.762934E-1,4.950807E-1,4.3084E-1,6.005981E-1,0E0,1.5658748E-1,0E0,0E0,1.789281E-1,0E0,0E0,0E0,0E0],"parents":[2147483647,0,0,1,1,2,2,3,3,5,5,8,8],"right_children":[2,4,6,8,-1,10,-1,-1,12,-1,-1,-1,-1],"split_conditions":[3.9941064E-1,7.044703E-1,1.3221124E0,-7.591934E-2,4.9770884E-2,7.0982915E-1,1.7830275E-2,3.1666722E-2,2.5430524E-1,-5.5889554E-2,-4.599602E-3,-4.839913E-2,1.2491286E-3],"split_indices":[906,1606,2839,729,0,2464,0,0,33,0,0,0,0],"split_type":[0,0,0,0,0,0,0,0,0,0,0,0,0],"sum_hessian":[9.613557E0,5.8582335E0,3.755323E0,3.9141397E0,1.9440938E0,2.744182E0,1.0111408E0,1.7074881E0,2.2066517E0,1.7364312E0,1.0077509E0,1.1956071E0,1.0110445E0],"tree_param":{"num_deleted":"0","num_feature":"12800","num_nodes":"13","size_leaf_vector":"1"}},{"base_weights":[9.862427E-4,2.5101584E-1,-1.9565211E-1,-3.2920927E-2,5.183267E-1,-4.651144E-1,1.456327E-1,6.1023504E-2,1.3417534E-2,-5.0481814E-3,-6.0084075E-2,4.4200104E-2,-2.5229648E-2],"categories":[],"categories_nodes":[],"categories_segments":[],"categories_sizes":[],"default_left":[0,0,0,0,0,0,0,0,0,0,0,0,0],"id":62,"left_children":[1,3,5,-1,7,9,11,-1,-1,-1,-1,-1,-1],"loss_changes":[5.604932E-1,9.4877785E-1,6.548521E-1,0E0,5.3102136E-2,1.8385464E-1,5.335151E-1,0E0,0E0,0E0,0E0,0E0,0E0],"parents":[2147483647,0,0,1,1,2,2,4,4,5,5,6,6],"right_children":[2,4,6,-1,8,10,12,-1,-1,-1,-1,-1,-1],"split_conditions":[1.4311826E-1,-7.869677E-1,5.155465E-1,-3.2920927E-2,3.0138823E-1,-1.0292262E-1,6.081335E-1,6.1023504E-2,1.3417534E-2,-5.0481814E-3,-6.0084075E-2,4.4200104E-2,-2.5229648E-2],"split_indices":[624,1415,1169,0,7273,1017,778,0,0,0,0,0,0],"split_type":[0,0,0,0,0,0,0,0,0,0,0,0,0],"sum_hessian":[9.401244E0,4.0170054E0,5.3842387E0,1.1939207E0,2.8230848E0,2.8059554E0,2.578283E0,1.8031526E0,1.0199322E0,1.0303279E0,1.7756276E0,1.4142386E0,1.1640446E0],"tree_param":{"num_deleted":"0","num_feature":"12800","num_nodes":"13","size_leaf_vector":"1"}},{"base_weights":[5.287508E-4,1.1205218E-1,-4.154062E-2,-1.8730386E-1,2.9277882E-1,-4.3980084E-2,2.2829806E-2,4.6368736E-1,-2.5291806E-2,6.0253013E-2,3.5371983E-3],"categories":[],"categories_nodes":[],"categories_segments":[],"categories_sizes":[],"default_left":[0,0,0,0,0,0,0,0,0,0,0],"id":63,"left_children":[1,3,-1,5,7,-1,-1,9,-1,-1,-1],"loss_changes":[5.1736546E-1,5.304682E-1,0E0,5.116974E-1,6.649268E-1,0E0,0E0,2.655939E-1,0E0,0E0,0E0],"parents":[2147483647,0,0,1,1,3,3,4,4,7,7],"right_children":[2,4,-1,6,8,-1,-1,10,-1,-1,-1],"split_conditions":[9.223621E-1,1.5174179E-2,-4.154062E-2,-4.370109E-2,9.394915E-1,-4.3980084E-2,2.2829806E-2,6.699738E-1,-2.5291806E-2,6.0253013E-2,3.5371983E-3],"split_indices":[931,2839,0,3571,819,0,0,910,0,0,0],"split_type":[0,0,0,0,0,0,0,0,0,0,0],"sum_hessian":[9.149901E0,7.7914143E0,1.3584877E0,2.9193697E0,4.8720446E0,1.7798214E0,1.1395483E0,3.824516E0,1.0475284E0,2.5810864E0,1.2434295E0],"tree_param":{"num_deleted":"0","num_feature":"12800","num_nodes":"11","size_leaf_vector":"1"}},{"base_weights":[-1.7836529E-3,2.4347249E-1,-1.940056E-1,-3.0705113E-2,4.977253E-1,-4.5083368E-1,1.3398297E-1,1.3647653E-2,5.833855E-2,-6.5719024E-3,-5.7554264E-2,4.157108E-2,-2.3646748E-2],"categories":[],"categories_nodes":[],"categories_segments":[],"categories_sizes":[],"default_left":[0,0,0,0,0,0,0,0,0,0,0,0,0],"id":64,"left_children":[1,3,5,-1,7,9,11,-1,-1,-1,-1,-1,-1],"loss_changes":[5.154545E-1,8.257221E-1,5.763048E-1,0E0,3.39514E-2,1.3814402E-1,4.594611E-1,0E0,0E0,0E0,0E0,0E0,0E0],"parents":[2147483647,0,0,1,1,2,2,4,4,5,5,6,6],"right_children":[2,4,6,-1,8,10,12,-1,-1,-1,-1,-1,-1],"split_conditions":[1.4311826E-1,-7.869677E-1,5.155465E-1,-3.0705113E-2,3.1268413E-3,-9.291823E-2,6.081335E-1,1.3647653E-2,5.833855E-2,-6.5719024E-3,-5.7554264E-2,4.157108E-2,-2.3646748E-2],"split_indices":[624,1415,1169,0,1508,1017,778,0,0,0,0,0,0],"split_type":[0,0,0,0,0,0,0,0,0,0,0,0,0],"sum_hessian":[8.931767E0,3.8073478E0,5.12442E0,1.1372482E0,2.6700997E0,2.6639223E0,2.4604979E0,1.0088363E0,1.6612633E0,1.0251446E0,1.6387777E0,1.3282137E0,1.132284E0],"tree_param":{"num_deleted":"0","num_feature":"12800","num_nodes":"13","size_leaf_vector":"1"}},{"base_weights":[-2.0843036E-3,1.5761462E-1,-2.892181E-1,-2.7516712E-2,3.6129135E-1,-5.1989038E-2,1.5061157E-2,5.970791E-2,4.7313076E-2,-3.569858E-2,3.9161567E-2],"categories":[],"categories_nodes":[],"categories_segments":[],"categories_sizes":[],"default_left":[0,0,0,0,0,0,0,0,0,0,0],"id":65,"left_children":[1,3,5,-1,7,-1,-1,-1,9,-1,-1],"loss_changes":[4.909129E-1,7.065722E-1,4.6624133E-1,0E0,3.5050243E-1,0E0,0E0,0E0,5.964182E-1,0E0,0E0],"parents":[2147483647,0,0,1,1,2,2,4,4,8,8],"right_children":[2,4,6,-1,8,-1,-1,-1,10,-1,-1],"split_conditions":[7.4980116E-1,-7.099855E-1,9.786311E-1,-2.7516712E-2,2.6025972E-1,-5.1989038E-2,1.5061157E-2,5.970791E-2,2.8970322E-1,-3.569858E-2,3.9161567E-2],"split_indices":[5006,5533,1906,0,4206,0,0,0,33,0,0],"split_type":[0,0,0,0,0,0,0,0,0,0,0],"sum_hessian":[8.711663E0,5.8879576E0,2.8237057E0,1.7719139E0,4.1160436E0,1.7328641E0,1.0908414E0,1.8357763E0,2.2802675E0,1.0318156E0,1.2484518E0],"tree_param":{"num_deleted":"0","num_feature":"12800","num_nodes":"11","size_leaf_vector":"1"}},{"base_weights":[-1.9399791E-3,1.21203266E-1,-3.7793696E-2,-8.81649E-2,4.8269104E-2,1.6851974E-1,-3.744813E-1,-2.1501174E-2,4.1536685E-2,-4.684552E-2,-9.2196865E-3],"categories":[],"categories_nodes":[],"categories_segments":[],"categories_sizes":[],"default_left":[0,0,0,0,0,0,0,0,0,0,0],"id":66,"left_children":[1,3,-1,5,-1,7,9,-1,-1,-1,-1],"loss_changes":[4.8497105E-1,6.406139E-1,0E0,4.9299932E-1,0E0,4.4660383E-1,3.8393736E-2,0E0,0E0,0E0,0E0],"parents":[2147483647,0,0,1,1,3,3,5,5,6,6],"right_children":[2,4,-1,6,-1,8,10,-1,-1,-1,-1],"split_conditions":[1.0739044E0,7.1221024E-1,-3.7793696E-2,3.9888602E-1,4.8269104E-2,-1.6131696E-1,1.9612265E-1,-2.1501174E-2,4.1536685E-2,-4.684552E-2,-9.2196865E-3],"split_indices":[798,666,0,1062,0,99,611,0,0,0,0],"split_type":[0,0,0,0,0,0,0,0,0,0,0],"sum_hessian":[8.484875E0,6.9020305E0,1.5828444E0,4.849424E0,2.0526063E0,2.7739656E0,2.0754583E0,1.1367466E0,1.637219E0,1.0622987E0,1.0131596E0],"tree_param":{"num_deleted":"0","num_feature":"12800","num_nodes":"11","size_leaf_vector":"1"}},{"base_weights":[-4.4477014E-3,3.1492415E-1,-1.430722E-1,-2.439482E-3,4.8865307E-2,-4.9595185E-2,6.897745E-2,2.7601406E-1,-2.427057E-2,-6.088197E-3,4.4417694E-2],"categories":[],"categories_nodes":[],"categories_segments":[],"categories_sizes":[],"default_left":[0,0,0,0,0,0,0,0,0,0,0],"id":67,"left_children":[1,3,5,-1,-1,-1,7,9,-1,-1,-1],"loss_changes":[4.569169E-1,1.9632155E-1,5.7107556E-1,0E0,0E0,0E0,4.1283867E-1,2.3599511E-1,0E0,0E0,0E0],"parents":[2147483647,0,0,1,1,2,2,6,6,7,7],"right_children":[2,4,6,-1,-1,-1,8,10,-1,-1,-1],"split_conditions":[-4.856359E-1,-7.6020104E-1,1.5557235E-1,-2.439482E-3,4.8865307E-2,-4.9595185E-2,6.840695E-1,3.2247978E-1,-2.427057E-2,-6.088197E-3,4.4417694E-2],"split_indices":[8995,6178,35,0,0,0,778,1841,0,0,0],"split_type":[0,0,0,0,0,0,0,0,0,0,0],"sum_hessian":[8.302785E0,2.1281168E0,6.174668E0,1.011698E0,1.1164188E0,1.8151547E0,4.3595133E0,2.6882644E0,1.6712488E0,1.107489E0,1.5807755E0],"tree_param":{"num_deleted":"0","num_feature":"12800","num_nodes":"11","size_leaf_vector":"1"}},{"base_weights":[-2.8406116E-3,-1.17253385E-1,3.832763E-2,1.7282015E-1,-2.9869008E-1,-2.4522316E-2,4.242422E-2,-4.6493113E-1,1.1565326E-2,-1.0853285E-2,-5.5404242E-2],"categories":[],"categories_nodes":[],"categories_segments":[],"categories_sizes":[],"default_left":[0,0,0,0,0,0,0,0,0,0,0],"id":68,"left_children":[1,3,-1,5,7,-1,-1,9,-1,-1,-1],"loss_changes":[4.4854286E-1,4.6284267E-1,0E0,4.86627E-1,4.101178E-1,0E0,0E0,6.345141E-2,0E0,0E0,0E0],"parents":[2147483647,0,0,1,1,3,3,4,4,7,7],"right_children":[2,4,-1,6,8,-1,-1,10,-1,-1,-1],"split_conditions":[9.8863685E-1,4.2853918E-2,3.832763E-2,-8.4439707E-1,8.714734E-1,-2.4522316E-2,4.242422E-2,-1.9580737E-1,1.1565326E-2,-1.0853285E-2,-5.5404242E-2],"split_indices":[882,879,0,8802,1888,0,0,848,0,0,0],"split_type":[0,0,0,0,0,0,0,0,0,0,0],"sum_hessian":[8.136092E0,6.813474E0,1.3226177E0,2.6400928E0,4.1733813E0,1.0007634E0,1.6393294E0,2.8912678E0,1.2821136E0,1.0219505E0,1.8693173E0],"tree_param":{"num_deleted":"0","num_feature":"12800","num_nodes":"11","size_leaf_vector":"1"}},{"base_weights":[-2.5064482E-3,1.026723E-1,-4.2068984E-2,-1.05156064E-1,3.561212E-1,2.0051497E-1,-3.88397E-1,5.1038593E-2,-3.6269396E-3,-1.1202528E-2,4.02287E-2,-4.9310874E-2,-8.912439E-3],"categories":[],"categories_nodes":[],"categories_segments":[],"categories_sizes":[],"default_left":[0,0,0,0,0,0,0,0,0,0,0,0,0],"id":69,"left_children":[1,3,-1,5,7,9,11,-1,-1,-1,-1,-1,-1],"loss_changes":[4.380431E-1,4.576192E-1,0E0,5.2418387E-1,2.4986053E-1,2.43005E-1,5.056873E-2,0E0,0E0,0E0,0E0,0E0,0E0],"parents":[2147483647,0,0,1,1,3,3,4,4,5,5,6,6],"right_children":[2,4,-1,6,8,10,12,-1,-1,-1,-1,-1,-1],"split_conditions":[1.0442297E0,5.249058E-1,-4.2068984E-2,-1.3885025E-3,1.3645643E0,-8.1999384E-2,1.8010193E-1,5.1038593E-2,-3.6269396E-3,-1.1202528E-2,4.02287E-2,-4.9310874E-2,-8.912439E-3],"split_indices":[873,1363,0,869,4151,793,1117,0,0,0,0,0,0],"split_type":[0,0,0,0,0,0,0,0,0,0,0,0,0],"sum_hessian":[7.977124E0,6.9768367E0,1.0002879E0,4.1549077E0,2.821929E0,2.1388016E0,2.016106E0,1.8097382E0,1.0121908E0,1.0135807E0,1.1252209E0,1.0137254E0,1.0023805E0],"tree_param":{"num_deleted":"0","num_feature":"12800","num_nodes":"13","size_leaf_vector":"1"}},{"base_weights":[-4.9463245E-3,1.504381E-1,-2.7467665E-1,-2.015005E-1,3.8164347E-1,-4.8664194E-2,1.2946191E-2,-4.5473717E-2,1.5697083E-2,2.5950852E-3,5.5230647E-2],"categories":[],"categories_nodes":[],"categories_segments":[],"categories_sizes":[],"default_left":[0,0,0,0,0,0,0,0,0,0,0],"id":70,"left_children":[1,3,5,7,9,-1,-1,-1,-1,-1,-1],"loss_changes":[4.1035324E-1,5.840608E-1,3.690067E-1,3.551186E-1,2.3498446E-1,0E0,0E0,0E0,0E0,0E0,0E0],"parents":[2147483647,0,0,1,1,2,2,3,3,4,4],"right_children":[2,4,6,8,10,-1,-1,-1,-1,-1,-1],"split_conditions":[7.4980116E-1,-1.02674596E-1,9.786311E-1,-5.852876E-1,1.6211382E-1,-4.8664194E-2,1.2946191E-2,-4.5473717E-2,1.5697083E-2,2.5950852E-3,5.5230647E-2],"split_indices":[5006,2589,1906,6824,1949,0,0,0,0,0,0],"split_type":[0,0,0,0,0,0,0,0,0,0,0],"sum_hessian":[7.804933E0,5.2327504E0,2.5721827E0,2.125624E0,3.1071262E0,1.5533335E0,1.0188491E0,1.0882797E0,1.0373443E0,1.3809777E0,1.7261486E0],"tree_param":{"num_deleted":"0","num_feature":"12800","num_nodes":"11","size_leaf_vector":"1"}},{"base_weights":[-5.431101E-3,1.6897681E-1,-2.4993278E-1,-1.4558995E-2,3.7296852E-1,-4.1545972E-2,9.768553E-3,5.292375E-2,-1.51813E-4],"categories":[],"categories_nodes":[],"categories_segments":[],"categories_sizes":[],"default_left":[0,0,0,0,0,0,0,0,0],"id":71,"left_children":[1,3,5,-1,7,-1,-1,-1,-1],"loss_changes":[4.1032928E-1,4.158816E-1,2.7058512E-1,0E0,2.1726793E-1,0E0,0E0,0E0,0E0],"parents":[2147483647,0,0,1,1,2,2,4,4],"right_children":[2,4,6,-1,8,-1,-1,-1,-1],"split_conditions":[3.9941064E-1,-4.9986314E-2,9.0867656E-1,-1.4558995E-2,7.1096176E-1,-4.1545972E-2,9.768553E-3,5.292375E-2,-1.51813E-4],"split_indices":[906,1961,988,0,4878,0,0,0,0],"split_type":[0,0,0,0,0,0,0,0,0],"sum_hessian":[7.632043E0,4.634824E0,2.997219E0,1.9358808E0,2.698943E0,1.8981892E0,1.0990299E0,1.6127334E0,1.0862095E0],"tree_param":{"num_deleted":"0","num_feature":"12800","num_nodes":"9","size_leaf_vector":"1"}},{"base_weights":[-4.103492E-3,1.1437231E-1,-3.529716E-2,-8.402298E-2,4.4602565E-2,1.5553267E-1,-3.4846663E-2,-1.772702E-2,3.9788693E-2],"categories":[],"categories_nodes":[],"categories_segments":[],"categories_sizes":[],"default_left":[0,0,0,0,0,0,0,0,0],"id":72,"left_children":[1,3,-1,5,-1,7,-1,-1,-1],"loss_changes":[3.9232904E-1,5.0542736E-1,0E0,3.894034E-1,0E0,3.502295E-1,0E0,0E0,0E0],"parents":[2147483647,0,0,1,1,3,3,5,5],"right_children":[2,4,-1,6,-1,8,-1,-1,-1],"split_conditions":[1.0739044E0,7.1221024E-1,-3.529716E-2,3.9888602E-1,4.4602565E-2,4.101952E-2,-3.4846663E-2,-1.772702E-2,3.9788693E-2],"split_indices":[798,666,0,1062,0,2461,0,0,0],"split_type":[0,0,0,0,0,0,0,0,0],"sum_hessian":[7.51532E0,6.1118827E0,1.4034371E0,4.2914114E0,1.8204716E0,2.4677563E0,1.823655E0,1.1529986E0,1.3147577E0],"tree_param":{"num_deleted":"0","num_feature":"12800","num_nodes":"9","size_leaf_vector":"1"}},{"base_weights":[-4.081765E-3,2.2731517E-1,-1.8041044E-1,-1.42010925E-2,5.2241337E-2,-4.7133837E-2,7.873709E-2,